Language model created by QuickLM on Mon Jul 10 07:48:09 EDT 2017
Copyright (c) 1996-2010 Carnegie Mellon University and Alexander I. Rudnicky

The model is in standard ARPA format, designed by Doug Paul while he was at MITRE.

The code that was used to produce this language model is available in Open Source.
Please visit http://www.speech.cs.cmu.edu/tools/ for more information

The (fixed) discount mass is 0.5. The backoffs are computed using the ratio method.
This model based on a corpus of 45 sentences and 176 words

\data\
ngram 1=176
ngram 2=357
ngram 3=362

\1-grams:
-1.3254 </s> -0.3010
-1.3254 <s> -0.2325
-1.9786 A -0.2932
-2.6776 ACROSS -0.3001
-2.9786 AFTERNOON -0.3006
-2.5015 ALL -0.2974
-2.6776 ALSO. -0.2800
-1.7482 AND -0.2776
-2.6776 ANY -0.2964
-2.9786 APART -0.2997
-2.9786 ARE -0.3006
-2.3766 AREAS -0.2776
-2.9786 AREAS, -0.2969
-2.6776 AREAS. -0.2800
-2.9786 AS -0.2913
-2.5015 BE -0.2969
-2.9786 BECOME -0.3006
-2.6776 BECOMING -0.2978
-2.9786 BLUSTERY -0.2992
-2.9786 BREAKS -0.2946
-2.9786 BREEZE. -0.2800
-2.9786 BUT -0.2997
-2.6776 BY -0.2992
-2.9786 CALM -0.2932
-2.9786 CENTRE -0.2946
-2.3766 CLEAR -0.2708
-2.9786 CLOUD -0.2932
-2.9786 CLOUDS -0.2946
-2.6776 CLOUDY -0.3001
-2.9786 COAST. -0.2800
-2.5015 COLD -0.2913
-2.6776 CONTINUING -0.2997
-2.9786 COUNTIES. -0.2800
-2.5015 COUNTRY -0.2876
-2.6776 COUNTRY. -0.2800
-2.9786 CROSS -0.2913
-2.6776 DAY -0.2946
-2.9786 DEVELOP -0.3001
-2.9786 DEVELOP. -0.2800
-2.9786 DEVELOPING. -0.2800
-2.9786 DIE -0.3001
-2.2005 DRIZZLE -0.2564
-2.2797 DRY -0.2703
-2.9786 DURING -0.2913
-2.9786 DYING -0.3001
-2.9786 EAST -0.2992
-2.9786 EXPECTED -0.3001
-2.9786 EXTENDING -0.2983
-2.9786 EXTENSIVE -0.3001
-2.6776 FAIR -0.2997
-2.6776 FEW -0.2978
-2.9786 FIFTY -0.2983
-2.6776 FOG -0.2997
-2.9786 FOG, -0.3001
-2.9786 FOG. -0.2800
-2.9786 FOLLOWED -0.3006
-2.6776 FRESH -0.2974
-2.5015 FROM -0.2909
-2.6776 FROST -0.3001
-2.9786 GOES -0.3006
-2.9786 GRADUALLY -0.3006
-2.9786 GROUND -0.3001
-2.9786 GUSTING -0.3006
-2.9786 GUSTY -0.3006
-2.9786 HALF -0.2964
-2.9786 HAZE -0.2932
-2.9786 HAZY. -0.2800
-2.9786 HEAVIEST -0.2800
-2.5015 HEAVY -0.2848
-2.9786 HIGH -0.3001
-2.9786 IF -0.3001
-1.7745 IN -0.2838
-2.9786 INCREASE -0.2997
-2.9786 ISOLATED -0.3001
-2.9786 IT -0.2946
-2.9786 LARGELY -0.3006
-2.9786 LATER -0.3001
-2.5015 LATER. -0.2800
-2.9786 LEAVING -0.2800
-2.9786 LIGHT -0.2969
-2.9786 LIKELY -0.2937
-2.6776 LITTLE -0.2955
-2.6776 LOW -0.2997
-2.9786 MAINLY -0.3001
-2.6776 MANY -0.2987
-2.9786 MILD -0.2951
-2.9786 MILD. -0.2800
-2.6776 MIST -0.2871
-2.9786 MISTY -0.2937
-2.9786 MODERATE -0.2983
-2.9786 MORE -0.3006
-2.9786 MORNING. -0.2800
-2.2005 MOST -0.2955
-2.9786 MOSTLY -0.2987
-2.9786 MOVE -0.2937
-2.9786 MPH. -0.2800
-2.9786 NEAR -0.2913
-2.9786 NIGHT -0.2946
-2.9786 NIGHT. -0.2800
-2.9786 NO -0.3006
-2.5015 NORTH -0.2927
-2.6776 NORTHEAST -0.2885
-2.9786 NORTHEASTERN -0.3006
-2.6776 NORTHERN -0.2913
-2.9786 NORTHWEST -0.2800
-2.9786 NORTHWESTERLY. -0.2800
-2.9786 OCCASIONAL -0.3001
-1.9786 OF -0.2852
-2.9786 ON. -0.2800
-2.2005 OR -0.2964
-2.6776 OUT -0.2983
-2.6776 OUTBREAKS -0.2964
-2.9786 OVER -0.2983
-2.9786 OVERCAST -0.2951
-2.5015 OVERNIGHT -0.2871
-2.9786 OVERNIGHT, -0.2997
-2.5015 PARTS -0.2960
-2.9786 PATCHES -0.3006
-2.9786 PATCHY -0.2983
-2.9786 PERHAPS -0.2964
-2.6776 PERSISTENT -0.2937
-2.9786 PLACES -0.2987
-2.5015 PLACES. -0.2800
-2.9786 POSSIBLY -0.3001
-2.6776 PRESSURE -0.2941
-2.9786 PRINCIPALLY -0.2937
-2.0244 RAIN -0.2885
-2.9786 RAIN. -0.2800
-2.6776 RATHER -0.2997
-2.9786 REMAIN -0.2987
-2.9786 REMAINING -0.2997
-2.6776 REST -0.2964
-2.9786 RIDGE -0.2964
-2.6776 RISK -0.2964
-2.5015 SCATTERED -0.2978
-2.9786 SECOND -0.3001
-2.9786 SEVERE -0.3006
-2.3766 SHOWERS -0.2664
-2.6776 SHOWERS. -0.2800
-2.9786 SIXTY -0.3006
-2.9786 SLOWLY -0.3006
-2.5015 SOME -0.2978
-2.3766 SOUTH -0.2932
-2.9786 SOUTHEAST -0.2951
-2.6776 SOUTHERLY -0.2997
-2.9786 SOUTHWEST -0.2983
-2.9786 SOUTHWEST. -0.2800
-2.6776 SPELLS -0.2871
-2.9786 SPELLS. -0.2800
-2.9786 SPREAD -0.2983
-2.9786 SPREADING -0.2983
-2.9786 STILL -0.3006
-2.6776 STRONG -0.2997
-2.5015 SUNNY -0.2997
-2.9786 SUNNY. -0.2800
-1.6564 THE -0.2852
-2.9786 THOUGH -0.2964
-2.9786 THUNDER -0.2997
-2.2005 TO -0.2955
-2.5015 TOMORROW -0.2918
-2.9786 TOMORROW. -0.2800
-2.9786 TONIGHT -0.2937
-2.6776 TONIGHT. -0.2800
-2.9786 UP -0.2983
-2.9786 VEERING -0.2800
-2.5015 VERY -0.2974
-2.9786 WEAK -0.3006
-2.6776 WEATHER -0.2932
-2.2797 WEST -0.2913
-2.9786 WESTERN -0.2800
-2.9786 WIDESPREAD -0.3006
-1.8325 WILL -0.2937
-2.9786 WIND. -0.2800
-2.6776 WINDS -0.3001
-2.3766 WINDY -0.2937
-1.8647 WITH -0.2814

\2-grams:
-1.2553 <s> A -0.1461
-1.6532 <s> AND -0.2747
-1.9542 <s> ANY -0.1761
-1.9542 <s> ARE 0.0000
-1.9542 <s> BECOMING -0.1761
-1.9542 <s> CLOUDS 0.0000
-1.9542 <s> CLOUDY -0.1761
-1.9542 <s> COAST. 0.0000
-1.9542 <s> COLD -0.2218
-1.6532 <s> CONTINUING 0.0000
-1.9542 <s> EXTENSIVE 0.0000
-1.9542 <s> FAIR -0.1761
-1.9542 <s> FRESH -0.1761
-1.9542 <s> FROST -0.1761
-1.9542 <s> HALF 0.0000
-1.9542 <s> IN -0.2730
-1.9542 <s> IT 0.0000
-1.9542 <s> MISTY 0.0000
-1.9542 <s> MOSTLY 0.0000
-1.9542 <s> NORTHWESTERLY. 0.0000
-1.9542 <s> OVERNIGHT, 0.0000
-1.4771 <s> RAIN -0.1249
-1.6532 <s> SCATTERED -0.1249
-1.9542 <s> SEVERE 0.0000
-1.9542 <s> SHOWERS -0.2430
-1.9542 <s> SOME -0.2218
-1.9542 <s> SPELLS. 0.0000
-1.4771 <s> THE -0.2688
-1.9542 <s> TOMORROW -0.2218
-1.9542 <s> VERY -0.2218
-1.9542 <s> WEATHER -0.1761
-1.9542 <s> WIDESPREAD 0.0000
-1.9542 <s> WILL -0.2852
-1.9542 <s> WINDY -0.0969
-1.3010 A DRY -0.2553
-1.0000 A FEW 0.0000
-1.3010 A LITTLE -0.1761
-1.3010 A MODERATE 0.0000
-1.0000 A RISK 0.0000
-1.3010 A SECOND 0.0000
-1.3010 A VERY -0.2218
-1.3010 A WEAK 0.0000
-0.3010 ACROSS NORTHERN 0.0000
-0.3010 AFTERNOON PRINCIPALLY 0.0000
-0.7782 ALL AREAS -0.2430
-0.7782 ALL AREAS, 0.0000
-0.7782 ALL PARTS -0.2218
-0.3010 ALSO. </s> -0.3010
-1.5315 AND A -0.2553
-1.5315 AND CLEAR -0.2430
-1.5315 AND DRIZZLE -0.2218
-1.5315 AND FOG -0.1761
-1.5315 AND MIST -0.1761
-1.5315 AND MOST -0.2632
-1.2304 AND NORTHEAST 0.0000
-1.5315 AND NORTHEASTERN 0.0000
-1.5315 AND PERSISTENT 0.0000
-1.5315 AND SOUTHEAST 0.0000
-1.5315 AND SOUTHWEST. 0.0000
-1.5315 AND SUNNY -0.1249
-1.5315 AND SUNNY. 0.0000
-1.2304 AND WEST -0.2041
-1.5315 AND WINDY -0.0969
-0.6021 ANY FOG, 0.0000
-0.6021 ANY RAIN -0.2218
-0.3010 APART FROM -0.2218
-0.3010 ARE STILL 0.0000
-0.9031 AREAS </s> -0.3010
-0.9031 AREAS FROM -0.1249
-0.9031 AREAS THOUGH 0.0000
-0.9031 AREAS TOMORROW. 0.0000
-0.3010 AREAS, RAIN -0.2499
-0.3010 AREAS. </s> -0.3010
-0.3010 AS THE -0.2906
-0.7782 BE COLD -0.2218
-0.7782 BE DRY -0.2553
-0.7782 BE OVERCAST 0.0000
-0.3010 BECOME MORE 0.0000
-0.6021 BECOMING HEAVY -0.2218
-0.6021 BECOMING WINDY -0.2430
-0.3010 BLUSTERY SHOWERS -0.2430
-0.3010 BREAKS WILL -0.2852
-0.3010 BREEZE. </s> -0.3010
-0.3010 BUT VERY -0.2218
-0.6021 BY AFTERNOON 0.0000
-0.6021 BY HEAVY -0.2218
-0.3010 CALM AND -0.2881
-0.3010 CENTRE WILL -0.2852
-0.9031 CLEAR </s> -0.3010
-0.9031 CLEAR OVERNIGHT -0.2218
-0.9031 CLEAR TOMORROW -0.2218
-0.9031 CLEAR WITH -0.2840
-0.3010 CLOUD AND -0.2881
-0.3010 CLOUDS WILL -0.2852
-0.6021 CLOUDY OVER 0.0000
-0.6021 CLOUDY TONIGHT 0.0000
-0.3010 COAST. </s> -0.3010
-0.7782 COLD AND -0.2881
-0.7782 COLD NIGHT. 0.0000
-0.7782 COLD OVERNIGHT -0.2218
-0.6021 CONTINUING MILD 0.0000
-0.6021 CONTINUING RATHER -0.1761
-0.3010 COUNTIES. </s> -0.3010
-0.7782 COUNTRY TONIGHT. 0.0000
-0.7782 COUNTRY WILL -0.2518
-0.7782 COUNTRY WITH -0.2663
-0.3010 COUNTRY. </s> -0.3010
-0.3010 CROSS THE -0.2688
-0.6021 DAY GOES 0.0000
-0.6021 DAY WITH -0.2840
-0.3010 DEVELOP BY -0.1761
-0.3010 DEVELOP. </s> -0.3010
-0.3010 DEVELOPING. </s> -0.3010
-0.3010 DIE OUT -0.1761
-1.0792 DRIZZLE </s> -0.3010
-1.0792 DRIZZLE AND -0.2881
-1.0792 DRIZZLE IN -0.1938
-1.0792 DRIZZLE NEAR 0.0000
-0.7782 DRIZZLE WILL -0.2518
-1.0000 DRY </s> -0.3010
-1.0000 DRY APART 0.0000
-1.0000 DRY CALM 0.0000
-1.0000 DRY DAY -0.1761
-1.0000 DRY IN -0.2583
-0.3010 DURING THE -0.2906
-0.3010 DYING OUT -0.1761
-0.3010 EAST AREAS -0.2430
-0.3010 EXPECTED ALSO. 0.0000
-0.3010 EXTENDING TO -0.2218
-0.3010 EXTENSIVE MIST -0.1761
-0.6021 FAIR IF 0.0000
-0.6021 FAIR WEATHER -0.1761
-0.6021 FEW SHOWERS -0.2430
-0.6021 FEW SUNNY -0.2218
-0.3010 FIFTY OR -0.2632
-0.6021 FOG ALSO. 0.0000
-0.6021 FOG PATCHES 0.0000
-0.3010 FOG, LOW -0.1761
-0.3010 FOG. </s> -0.3010
-0.3010 FOLLOWED LATER 0.0000
-0.6021 FRESH OR -0.2632
-0.6021 FRESH SOUTHERLY -0.1761
-0.7782 FROM PERHAPS 0.0000
-0.4771 FROM THE -0.2798
-0.6021 FROST DEVELOPING. 0.0000
-0.6021 FROST LIKELY 0.0000
-0.3010 GOES ON. 0.0000
-0.3010 GRADUALLY VEERING 0.0000
-0.3010 GROUND FROST -0.1761
-0.3010 GUSTING UP 0.0000
-0.3010 GUSTY SOUTHWEST 0.0000
-0.3010 HALF OF -0.1761
-0.3010 HAZE AND -0.2881
-0.3010 HAZY. </s> -0.3010
-0.3010 HEAVIEST </s> -0.3010
-0.7782 HEAVY AND -0.2881
-0.7782 HEAVY IN -0.2730
-0.7782 HEAVY SHOWERS. 0.0000
-0.3010 HIGH PRESSURE -0.1761
-0.3010 IF RATHER -0.1761
-1.5051 IN ACROSS 0.0000
-1.5051 IN ALL -0.2218
-1.2041 IN MANY 0.0000
-1.0280 IN MOST -0.1249
-1.2041 IN PLACES. 0.0000
-0.6601 IN THE -0.2218
-0.3010 INCREASE FROM -0.1249
-0.3010 ISOLATED TONIGHT. 0.0000
-0.3010 IT WILL -0.2518
-0.3010 LARGELY DYING 0.0000
-0.3010 LATER BY -0.1761
-0.3010 LATER. </s> -0.3010
-0.3010 LEAVING </s> -0.3010
-0.3010 LIGHT RAIN -0.2218
-0.3010 LIKELY IN -0.2730
-0.6021 LITTLE DRIZZLE -0.2632
-0.6021 LITTLE OR -0.2632
-0.6021 LOW CLOUD 0.0000
-0.6021 LOW PRESSURE -0.1761
-0.3010 MAINLY FAIR -0.1761
-0.6021 MANY AREAS. 0.0000
-0.6021 MANY PLACES. 0.0000
-0.3010 MILD WITH -0.2663
-0.3010 MILD. </s> -0.3010
-0.6021 MIST AND -0.2881
-0.6021 MIST WITH -0.2840
-0.3010 MISTY IN -0.1938
-0.3010 MODERATE TO -0.2632
-0.3010 MORE ISOLATED 0.0000
-0.3010 MORNING. </s> -0.3010
-1.0792 MOST AREAS -0.2430
-1.0792 MOST AREAS. 0.0000
-0.7782 MOST PARTS -0.1249
-1.0792 MOST PERSISTENT 0.0000
-1.0792 MOST PLACES 0.0000
-0.3010 MOSTLY DRY -0.2553
-0.3010 MOVE IN -0.2872
-0.3010 MPH. </s> -0.3010
-0.3010 NEAR THE -0.2906
-0.3010 NIGHT WILL -0.2518
-0.3010 NIGHT. </s> -0.3010
-0.3010 NO WIND. 0.0000
-0.4771 NORTH AND -0.2747
-0.7782 NORTH EAST 0.0000
-0.6021 NORTHEAST WILL -0.2688
-0.6021 NORTHEAST WITH -0.2663
-0.3010 NORTHEASTERN COUNTIES. 0.0000
-0.6021 NORTHERN AND -0.2881
-0.6021 NORTHERN AREAS -0.2430
-0.3010 NORTHWEST </s> -0.3010
-0.3010 NORTHWESTERLY. </s> -0.3010
-0.3010 OCCASIONAL SHOWERS. 0.0000
-1.3010 OF FOG. 0.0000
-1.3010 OF HIGH 0.0000
-1.3010 OF RAIN -0.2762
-1.3010 OF RAIN. 0.0000
-0.6021 OF THE -0.2341
-1.3010 OF THUNDER 0.0000
-0.3010 ON. </s> -0.3010
-0.6021 OR DRIZZLE -0.1249
-1.0792 OR NO 0.0000
-1.0792 OR SIXTY 0.0000
-1.0792 OR STRONG -0.1761
-0.6021 OUT LATER. 0.0000
-0.6021 OUT TOMORROW -0.2218
-0.3010 OUTBREAKS OF -0.2553
-0.3010 OVER MOST -0.2218
-0.3010 OVERCAST WITH -0.2840
-0.7782 OVERNIGHT BUT 0.0000
-0.7782 OVERNIGHT IN -0.2583
-0.7782 OVERNIGHT WITH -0.2840
-0.3010 OVERNIGHT, HEAVY -0.2218
-0.7782 PARTS DURING 0.0000
-0.4771 PARTS OF -0.1761
-0.3010 PATCHES EXPECTED 0.0000
-0.3010 PATCHY DRIZZLE -0.2632
-0.3010 PERHAPS A -0.2788
-0.3010 PERSISTENT IN -0.1576
-0.3010 PLACES DRY -0.2553
-0.3010 PLACES. </s> -0.3010
-0.3010 POSSIBLY ACROSS 0.0000
-0.6021 PRESSURE CENTRE 0.0000
-0.6021 PRESSURE WILL -0.2852
-0.3010 PRINCIPALLY IN -0.1938
-1.2553 RAIN BECOMING -0.1761
-1.2553 RAIN EXTENDING 0.0000
-1.2553 RAIN HEAVIEST 0.0000
-0.9542 RAIN IN -0.1938
-0.7782 RAIN OR -0.1761
-1.2553 RAIN SPREADING 0.0000
-0.3010 RAIN. </s> -0.3010
-0.6021 RATHER CLOUDY -0.1761
-0.6021 RATHER HAZY. 0.0000
-0.3010 REMAIN DRY -0.2553
-0.3010 REMAINING NORTH -0.2218
-0.3010 REST OF -0.1761
-0.3010 RIDGE OF -0.2788
-0.3010 RISK OF -0.2553
-0.7782 SCATTERED BLUSTERY 0.0000
-0.7782 SCATTERED OUTBREAKS 0.0000
-0.7782 SCATTERED SHOWERS -0.2430
-0.3010 SECOND LOW -0.1761
-0.3010 SEVERE GROUND 0.0000
-0.9031 SHOWERS </s> -0.3010
-0.9031 SHOWERS LARGELY 0.0000
-0.9031 SHOWERS WILL -0.2852
-0.9031 SHOWERS WITH -0.2663
-0.3010 SHOWERS. </s> -0.3010
-0.3010 SIXTY MPH. 0.0000
-0.3010 SLOWLY BECOME 0.0000
-0.7782 SOME CLEAR -0.2430
-0.7782 SOME FOG -0.1761
-0.7782 SOME LIGHT 0.0000
-0.3010 SOUTH AND -0.2467
-0.3010 SOUTHEAST WITH -0.2840
-0.6021 SOUTHERLY BREEZE. 0.0000
-0.6021 SOUTHERLY WINDS -0.1761
-0.3010 SOUTHWEST TO -0.2632
-0.3010 SOUTHWEST. </s> -0.3010
-0.6021 SPELLS IN -0.2583
-0.6021 SPELLS WILL -0.2852
-0.3010 SPELLS. </s> -0.3010
-0.3010 SPREAD TO -0.2632
-0.3010 SPREADING TO -0.2218
-0.3010 STILL POSSIBLY 0.0000
-0.6021 STRONG GUSTY 0.0000
-0.6021 STRONG SOUTHERLY -0.1761
-0.7782 SUNNY BREAKS 0.0000
-0.4771 SUNNY SPELLS 0.0000
-0.3010 SUNNY. </s> -0.3010
-1.1461 THE COUNTRY 0.0000
-1.3222 THE COUNTRY. 0.0000
-1.6232 THE DAY -0.1761
-1.6232 THE MORNING. 0.0000
-1.6232 THE NIGHT 0.0000
-1.3222 THE NORTH -0.1249
-1.6232 THE NORTHWEST 0.0000
-1.6232 THE RAIN -0.2762
-1.3222 THE REST 0.0000
-1.0212 THE SOUTH 0.0000
-1.3222 THE WEST -0.2041
-1.6232 THE WESTERN 0.0000
-0.3010 THOUGH A -0.2553
-0.3010 THUNDER LATER. 0.0000
-0.7782 TO ALL -0.1249
-1.0792 TO FIFTY 0.0000
-1.0792 TO FRESH -0.1761
-1.0792 TO REMAINING 0.0000
-1.0792 TO WEST -0.2553
-0.7782 TOMORROW AND -0.2881
-0.7782 TOMORROW ANY -0.1761
-0.7782 TOMORROW LEAVING 0.0000
-0.3010 TOMORROW. </s> -0.3010
-0.3010 TONIGHT IN -0.1938
-0.3010 TONIGHT. </s> -0.3010
-0.3010 UP TO -0.2632
-0.3010 VEERING </s> -0.3010
-0.7782 VERY COLD -0.2218
-0.7782 VERY MILD. 0.0000
-0.7782 VERY WINDY -0.0969
-0.3010 WEAK RIDGE 0.0000
-0.6021 WEATHER IN -0.2872
-0.6021 WEATHER MAINLY 0.0000
-1.0000 WEST AS 0.0000
-1.0000 WEST FOLLOWED 0.0000
-1.0000 WEST LATER. 0.0000
-1.0000 WEST WILL -0.2852
-1.0000 WEST WINDS -0.1761
-0.3010 WESTERN </s> -0.3010
-0.3010 WIDESPREAD HAZE 0.0000
-0.9700 WILL BE 0.0000
-1.1461 WILL CLEAR -0.1761
-1.4472 WILL CROSS 0.0000
-1.4472 WILL DEVELOP 0.0000
-1.4472 WILL DEVELOP. 0.0000
-1.4472 WILL DIE 0.0000
-1.4472 WILL INCREASE 0.0000
-1.4472 WILL MOVE 0.0000
-1.4472 WILL REMAIN 0.0000
-1.4472 WILL SLOWLY 0.0000
-1.4472 WILL SPREAD 0.0000
-0.3010 WIND. </s> -0.3010
-0.6021 WINDS GRADUALLY 0.0000
-0.6021 WINDS GUSTING 0.0000
-0.9031 WINDY OVERNIGHT -0.2218
-0.4260 WINDY WITH -0.2478
-1.1139 WITH A -0.2304
-1.4150 WITH LITTLE -0.1761
-1.4150 WITH MOST -0.2632
-1.4150 WITH OCCASIONAL 0.0000
-1.4150 WITH OUTBREAKS 0.0000
-1.4150 WITH PATCHY 0.0000
-1.4150 WITH RAIN -0.2762
-1.4150 WITH SCATTERED -0.2218
-1.1139 WITH SOME -0.1249
-1.4150 WITH STRONG -0.1761
-1.4150 WITH SUNNY -0.1249

\3-grams:
-1.0000 <s> A DRY
-1.0000 <s> A FEW
-1.0000 <s> A SECOND
-1.0000 <s> A VERY
-1.0000 <s> A WEAK
-0.6021 <s> AND MOST
-0.6021 <s> AND SUNNY.
-0.3010 <s> ANY RAIN
-0.3010 <s> ARE STILL
-0.3010 <s> BECOMING WINDY
-0.3010 <s> CLOUDS WILL
-0.3010 <s> CLOUDY TONIGHT
-0.3010 <s> COAST. </s>
-0.3010 <s> COLD AND
-0.6021 <s> CONTINUING MILD
-0.6021 <s> CONTINUING RATHER
-0.3010 <s> EXTENSIVE MIST
-0.3010 <s> FAIR WEATHER
-0.3010 <s> FRESH OR
-0.3010 <s> FROST LIKELY
-0.3010 <s> HALF OF
-0.3010 <s> IN PLACES.
-0.3010 <s> IT WILL
-0.3010 <s> MISTY IN
-0.3010 <s> MOSTLY DRY
-0.3010 <s> NORTHWESTERLY. </s>
-0.3010 <s> OVERNIGHT, HEAVY
-0.7782 <s> RAIN IN
-0.7782 <s> RAIN OR
-0.7782 <s> RAIN SPREADING
-0.6021 <s> SCATTERED BLUSTERY
-0.6021 <s> SCATTERED SHOWERS
-0.3010 <s> SEVERE GROUND
-0.3010 <s> SHOWERS WILL
-0.3010 <s> SOME FOG
-0.3010 <s> SPELLS. </s>
-0.7782 <s> THE RAIN
-0.4771 <s> THE REST
-0.3010 <s> TOMORROW ANY
-0.3010 <s> VERY WINDY
-0.3010 <s> WEATHER MAINLY
-0.3010 <s> WIDESPREAD HAZE
-0.3010 <s> WILL REMAIN
-0.3010 <s> WINDY WITH
-0.3010 A DRY DAY
-0.6021 A FEW SHOWERS
-0.6021 A FEW SUNNY
-0.3010 A LITTLE DRIZZLE
-0.3010 A MODERATE TO
-0.3010 A RISK OF
-0.3010 A SECOND LOW
-0.3010 A VERY COLD
-0.3010 A WEAK RIDGE
-0.6021 ACROSS NORTHERN AND
-0.6021 ACROSS NORTHERN AREAS
-0.3010 AFTERNOON PRINCIPALLY IN
-0.3010 ALL AREAS FROM
-0.3010 ALL AREAS, RAIN
-0.3010 ALL PARTS DURING
-0.3010 AND A RISK
-0.3010 AND CLEAR OVERNIGHT
-0.3010 AND DRIZZLE WILL
-0.3010 AND FOG PATCHES
-0.3010 AND MIST WITH
-0.3010 AND MOST PERSISTENT
-0.6021 AND NORTHEAST WILL
-0.6021 AND NORTHEAST WITH
-0.3010 AND NORTHEASTERN COUNTIES.
-0.3010 AND PERSISTENT IN
-0.3010 AND SOUTHEAST WITH
-0.3010 AND SOUTHWEST. </s>
-0.3010 AND SUNNY SPELLS
-0.3010 AND SUNNY. </s>
-0.6021 AND WEST LATER.
-0.6021 AND WEST WILL
-0.3010 AND WINDY WITH
-0.3010 ANY FOG, LOW
-0.3010 ANY RAIN OR
-0.3010 APART FROM PERHAPS
-0.3010 ARE STILL POSSIBLY
-0.3010 AREAS FROM THE
-0.3010 AREAS THOUGH A
-0.3010 AREAS TOMORROW. </s>
-0.3010 AREAS, RAIN IN
-0.3010 AS THE DAY
-0.3010 BE COLD OVERNIGHT
-0.3010 BE DRY IN
-0.3010 BE OVERCAST WITH
-0.3010 BECOME MORE ISOLATED
-0.3010 BECOMING HEAVY IN
-0.3010 BECOMING WINDY OVERNIGHT
-0.3010 BLUSTERY SHOWERS LARGELY
-0.3010 BREAKS WILL DEVELOP
-0.3010 BUT VERY MILD.
-0.3010 BY AFTERNOON PRINCIPALLY
-0.3010 BY HEAVY SHOWERS.
-0.3010 CALM AND CLEAR
-0.3010 CENTRE WILL MOVE
-0.3010 CLEAR OVERNIGHT WITH
-0.3010 CLEAR TOMORROW LEAVING
-0.3010 CLEAR WITH MOST
-0.3010 CLOUD AND DRIZZLE
-0.3010 CLOUDS WILL INCREASE
-0.3010 CLOUDY OVER MOST
-0.3010 CLOUDY TONIGHT IN
-0.3010 COLD AND WINDY
-0.3010 COLD NIGHT. </s>
-0.3010 COLD OVERNIGHT IN
-0.3010 CONTINUING MILD WITH
-0.3010 CONTINUING RATHER CLOUDY
-0.3010 COUNTRY TONIGHT. </s>
-0.3010 COUNTRY WILL BE
-0.3010 COUNTRY WITH SOME
-0.3010 CROSS THE COUNTRY
-0.3010 DAY GOES ON.
-0.3010 DAY WITH SUNNY
-0.3010 DEVELOP BY AFTERNOON
-0.3010 DIE OUT TOMORROW
-0.3010 DRIZZLE AND A
-0.3010 DRIZZLE IN THE
-0.3010 DRIZZLE NEAR THE
-0.6021 DRIZZLE WILL CLEAR
-0.6021 DRIZZLE WILL DIE
-0.3010 DRY APART FROM
-0.3010 DRY CALM AND
-0.3010 DRY DAY WITH
-0.3010 DRY IN MOST
-0.3010 DURING THE MORNING.
-0.3010 DYING OUT LATER.
-0.3010 EAST AREAS </s>
-0.3010 EXPECTED ALSO. </s>
-0.3010 EXTENDING TO ALL
-0.3010 EXTENSIVE MIST AND
-0.3010 FAIR IF RATHER
-0.3010 FAIR WEATHER IN
-0.3010 FEW SHOWERS </s>
-0.3010 FEW SUNNY BREAKS
-0.3010 FIFTY OR SIXTY
-0.3010 FOG ALSO. </s>
-0.3010 FOG PATCHES EXPECTED
-0.3010 FOG, LOW CLOUD
-0.3010 FOLLOWED LATER BY
-0.3010 FRESH OR STRONG
-0.3010 FRESH SOUTHERLY BREEZE.
-0.3010 FROM PERHAPS A
-0.3010 FROM THE WEST
-0.3010 FROST DEVELOPING. </s>
-0.3010 FROST LIKELY IN
-0.3010 GOES ON. </s>
-0.3010 GRADUALLY VEERING </s>
-0.3010 GROUND FROST DEVELOPING.
-0.3010 GUSTING UP TO
-0.3010 GUSTY SOUTHWEST TO
-0.3010 HALF OF THE
-0.3010 HAZE AND MIST
-0.3010 HEAVY AND PERSISTENT
-0.3010 HEAVY IN MANY
-0.3010 HEAVY SHOWERS. </s>
-0.3010 HIGH PRESSURE WILL
-0.3010 IF RATHER HAZY.
-0.3010 IN ACROSS NORTHERN
-0.3010 IN ALL AREAS,
-0.6021 IN MANY AREAS.
-0.6021 IN MANY PLACES.
-0.7782 IN MOST AREAS
-0.7782 IN MOST AREAS.
-0.7782 IN MOST PARTS
-0.3010 IN PLACES. </s>
-0.8451 IN THE NORTH
-0.5441 IN THE SOUTH
-1.1461 IN THE WESTERN
-0.3010 INCREASE FROM THE
-0.3010 ISOLATED TONIGHT. </s>
-0.3010 IT WILL BE
-0.3010 LARGELY DYING OUT
-0.3010 LATER BY HEAVY
-0.3010 LIGHT RAIN OR
-0.3010 LIKELY IN MANY
-0.3010 LITTLE DRIZZLE NEAR
-0.3010 LITTLE OR NO
-0.3010 LOW CLOUD AND
-0.3010 LOW PRESSURE CENTRE
-0.3010 MAINLY FAIR IF
-0.3010 MANY AREAS. </s>
-0.3010 MANY PLACES. </s>
-0.3010 MILD WITH A
-0.3010 MIST AND FOG
-0.3010 MIST WITH SCATTERED
-0.3010 MISTY IN THE
-0.3010 MODERATE TO FRESH
-0.3010 MORE ISOLATED TONIGHT.
-0.3010 MOST AREAS THOUGH
-0.3010 MOST AREAS. </s>
-0.3010 MOST PARTS OF
-0.3010 MOST PERSISTENT IN
-0.3010 MOST PLACES DRY
-0.3010 MOSTLY DRY CALM
-0.3010 MOVE IN ACROSS
-0.3010 NEAR THE NORTHWEST
-0.3010 NIGHT WILL BE
-0.3010 NO WIND. </s>
-0.3010 NORTH AND NORTHEAST
-0.3010 NORTH EAST AREAS
-0.3010 NORTHEAST WILL CLEAR
-0.3010 NORTHEAST WITH SOME
-0.3010 NORTHEASTERN COUNTIES. </s>
-0.3010 NORTHERN AND NORTHEASTERN
-0.3010 NORTHERN AREAS TOMORROW.
-0.3010 OCCASIONAL SHOWERS. </s>
-0.3010 OF FOG. </s>
-0.3010 OF HIGH PRESSURE
-0.3010 OF RAIN HEAVIEST
-0.3010 OF RAIN. </s>
-0.6990 OF THE COUNTRY
-0.6990 OF THE COUNTRY.
-1.0000 OF THE NIGHT
-0.3010 OF THUNDER LATER.
-0.7782 OR DRIZZLE </s>
-0.7782 OR DRIZZLE IN
-0.7782 OR DRIZZLE WILL
-0.3010 OR NO WIND.
-0.3010 OR SIXTY MPH.
-0.3010 OR STRONG GUSTY
-0.3010 OUT LATER. </s>
-0.3010 OUT TOMORROW AND
-0.6021 OUTBREAKS OF RAIN
-0.6021 OUTBREAKS OF RAIN.
-0.3010 OVER MOST PARTS
-0.3010 OVERCAST WITH OUTBREAKS
-0.3010 OVERNIGHT BUT VERY
-0.3010 OVERNIGHT IN MOST
-0.3010 OVERNIGHT WITH LITTLE
-0.3010 OVERNIGHT, HEAVY AND
-0.3010 PARTS DURING THE
-0.3010 PARTS OF THE
-0.3010 PATCHES EXPECTED ALSO.
-0.3010 PATCHY DRIZZLE AND
-0.3010 PERHAPS A LITTLE
-0.6021 PERSISTENT IN PLACES.
-0.6021 PERSISTENT IN THE
-0.3010 PLACES DRY </s>
-0.3010 POSSIBLY ACROSS NORTHERN
-0.3010 PRESSURE CENTRE WILL
-0.3010 PRESSURE WILL CROSS
-0.3010 PRINCIPALLY IN THE
-0.3010 RAIN BECOMING HEAVY
-0.3010 RAIN EXTENDING TO
-0.3010 RAIN HEAVIEST </s>
-0.3010 RAIN IN THE
-0.3010 RAIN OR DRIZZLE
-0.3010 RAIN SPREADING TO
-0.3010 RATHER CLOUDY OVER
-0.3010 RATHER HAZY. </s>
-0.3010 REMAIN DRY APART
-0.3010 REMAINING NORTH EAST
-0.3010 REST OF THE
-0.3010 RIDGE OF HIGH
-0.6021 RISK OF FOG.
-0.6021 RISK OF THUNDER
-0.3010 SCATTERED BLUSTERY SHOWERS
-0.3010 SCATTERED OUTBREAKS OF
-0.3010 SCATTERED SHOWERS WITH
-0.3010 SECOND LOW PRESSURE
-0.3010 SEVERE GROUND FROST
-0.3010 SHOWERS LARGELY DYING
-0.3010 SHOWERS WILL SLOWLY
-0.3010 SHOWERS WITH A
-0.3010 SIXTY MPH. </s>
-0.3010 SLOWLY BECOME MORE
-0.3010 SOME CLEAR </s>
-0.3010 SOME FOG ALSO.
-0.3010 SOME LIGHT RAIN
-0.9031 SOUTH AND SOUTHEAST
-0.9031 SOUTH AND SOUTHWEST.
-0.6021 SOUTH AND WEST
-0.3010 SOUTHEAST WITH PATCHY
-0.3010 SOUTHERLY BREEZE. </s>
-0.3010 SOUTHERLY WINDS GUSTING
-0.3010 SOUTHWEST TO WEST
-0.3010 SPELLS IN MOST
-0.3010 SPELLS WILL DEVELOP.
-0.3010 SPREAD TO REMAINING
-0.3010 SPREADING TO ALL
-0.3010 STILL POSSIBLY ACROSS
-0.3010 STRONG GUSTY SOUTHWEST
-0.3010 STRONG SOUTHERLY WINDS
-0.3010 SUNNY BREAKS WILL
-0.6021 SUNNY SPELLS IN
-0.6021 SUNNY SPELLS WILL
-0.7782 THE COUNTRY TONIGHT.
-0.7782 THE COUNTRY WILL
-0.7782 THE COUNTRY WITH
-0.3010 THE COUNTRY. </s>
-0.3010 THE DAY GOES
-0.3010 THE MORNING. </s>
-0.3010 THE NIGHT WILL
-0.3010 THE NORTH AND
-0.3010 THE NORTHWEST </s>
-0.3010 THE RAIN BECOMING
-0.3010 THE REST OF
-0.3010 THE SOUTH AND
-0.6021 THE WEST AS
-0.6021 THE WEST FOLLOWED
-0.3010 THE WESTERN </s>
-0.3010 THOUGH A FEW
-0.3010 THUNDER LATER. </s>
-0.6021 TO ALL AREAS
-0.6021 TO ALL PARTS
-0.3010 TO FIFTY OR
-0.3010 TO FRESH SOUTHERLY
-0.3010 TO REMAINING NORTH
-0.3010 TO WEST WINDS
-0.3010 TOMORROW AND SUNNY
-0.3010 TOMORROW ANY FOG,
-0.3010 TOMORROW LEAVING </s>
-0.3010 TONIGHT IN THE
-0.3010 UP TO FIFTY
-0.3010 VERY COLD NIGHT.
-0.3010 VERY MILD. </s>
-0.3010 VERY WINDY WITH
-0.3010 WEAK RIDGE OF
-0.3010 WEATHER IN ALL
-0.3010 WEATHER MAINLY FAIR
-0.3010 WEST AS THE
-0.3010 WEST FOLLOWED LATER
-0.3010 WEST LATER. </s>
-0.3010 WEST WILL SPREAD
-0.3010 WEST WINDS GRADUALLY
-0.3010 WIDESPREAD HAZE AND
-0.7782 WILL BE COLD
-0.7782 WILL BE DRY
-0.7782 WILL BE OVERCAST
-0.6021 WILL CLEAR TOMORROW
-0.6021 WILL CLEAR WITH
-0.3010 WILL CROSS THE
-0.3010 WILL DEVELOP BY
-0.3010 WILL DEVELOP. </s>
-0.3010 WILL DIE OUT
-0.3010 WILL INCREASE FROM
-0.3010 WILL MOVE IN
-0.3010 WILL REMAIN DRY
-0.3010 WILL SLOWLY BECOME
-0.3010 WILL SPREAD TO
-0.3010 WINDS GRADUALLY VEERING
-0.3010 WINDS GUSTING UP
-0.3010 WINDY OVERNIGHT BUT
-0.7782 WINDY WITH OCCASIONAL
-0.7782 WINDY WITH RAIN
-0.7782 WINDY WITH STRONG
-0.6021 WITH A MODERATE
-0.6021 WITH A RISK
-0.3010 WITH LITTLE OR
-0.3010 WITH MOST PLACES
-0.3010 WITH OCCASIONAL SHOWERS.
-0.3010 WITH OUTBREAKS OF
-0.3010 WITH PATCHY DRIZZLE
-0.3010 WITH RAIN EXTENDING
-0.3010 WITH SCATTERED OUTBREAKS
-0.6021 WITH SOME CLEAR
-0.6021 WITH SOME LIGHT
-0.3010 WITH STRONG SOUTHERLY
-0.3010 WITH SUNNY SPELLS

\end\
