Language model created by QuickLM on Sun Jul 30 15:07:31 EDT 2017
Copyright (c) 1996-2010 Carnegie Mellon University and Alexander I. Rudnicky

The model is in standard ARPA format, designed by Doug Paul while he was at MITRE.

The code that was used to produce this language model is available in Open Source.
Please visit http://www.speech.cs.cmu.edu/tools/ for more information

The (fixed) discount mass is 0.5. The backoffs are computed using the ratio method.
This model based on a corpus of 100 sentences and 369 words

\data\
ngram 1=369
ngram 2=708
ngram 3=686

\1-grams:
-1.2548 </s> -0.3010
-1.2548 <s> -0.2349
-1.9995 A -0.2962
-2.6527 ABOUT -0.2952
-3.2548 ACCIDENT. -0.2762
-3.2548 ACTUALLY -0.2967
-3.2548 ADDITION. -0.2762
-3.2548 ADDRESS -0.2942
-3.2548 ADULTS, -0.3005
-3.2548 AFTER -0.2967
-3.2548 AFTERNOON. -0.2762
-3.2548 ALL -0.3005
-2.9538 ALL? -0.2762
-3.2548 ALTERNATIVE -0.3008
-3.2548 AN -0.3008
-2.7777 AND -0.2910
-3.2548 ANIMOSITY. -0.2762
-2.9538 ANY -0.3003
-3.2548 APART -0.3005
-3.2548 APPROACHES, -0.2989
-2.7777 ARE -0.2991
-2.1756 AS -0.2795
-2.5558 AT -0.2935
-3.2548 ATTITUDE. -0.2762
-3.2548 AWARE. -0.2762
-3.2548 AWARENESS-RAISING. -0.2762
-3.2548 BACK -0.2930
-3.2548 BACK. -0.2762
-3.2548 BARGAINS -0.2998
-3.2548 BASED -0.2996
-2.4766 BE -0.2954
-3.2548 BECAUSE -0.2976
-2.7777 BEFORE -0.2971
-3.2548 BEFOREHAND. -0.2762
-2.7777 BEGINNING. -0.2762
-3.2548 BELIEVE -0.2964
-3.2548 BIT -0.2984
-3.2548 BOARD -0.3008
-3.2548 BUSINESS -0.2998
-3.2548 BUSY -0.2998
-2.9538 BUT -0.2984
-3.2548 BUT, -0.2976
-3.2548 BY -0.2930
-2.9538 CALL -0.2967
-3.2548 CAMPING -0.2967
-2.5558 CAN -0.2954
-2.6527 CAN’T -0.2984
-3.2548 CAREERS. -0.2762
-3.2548 CARRY -0.3001
-3.2548 CHALLENGE. -0.2762
-3.2548 CHANGED -0.3008
-3.2548 CHANGING -0.3008
-3.2548 CHEAP, -0.2964
-3.2548 CHILDREN, -0.3008
-2.7777 COME -0.2971
-3.2548 COMMANDS -0.3008
-3.2548 CONCERN -0.3008
-3.2548 CONCERNS -0.3008
-3.2548 CONFUSION -0.2981
-3.2548 CONSIST -0.3008
-3.2548 COSTS -0.2762
-3.2548 COULD -0.3008
-3.2548 COUPLE -0.2984
-3.2548 COURSE. -0.2762
-3.2548 CRITICISM -0.3008
-3.2548 CURBED. -0.2762
-3.2548 DANCE. -0.2762
-3.2548 DEAL -0.3008
-3.2548 DEFEND -0.3008
-3.2548 DELICIOUS. -0.2762
-2.5558 DID -0.2942
-3.2548 DINNER. -0.2762
-3.2548 DISEASE. -0.2762
-3.2548 DO -0.2981
-3.2548 DOES -0.2964
-2.9538 DON’T -0.3003
-3.2548 DOOR. -0.2762
-3.2548 DRAMA -0.3008
-3.2548 DRINK, -0.3008
-3.2548 DRINKS, -0.2998
-3.2548 DROPPED -0.3008
-3.2548 DUE -0.2930
-2.9538 EACH -0.2927
-2.9538 EASY -0.2927
-3.2548 EFFECTS? -0.2762
-3.2548 EMAIL -0.3008
-3.2548 EMERGED -0.3005
-2.7777 END. -0.2762
-3.2548 ENOUGH. -0.2762
-2.9538 EVEN -0.2940
-3.2548 EVENTS -0.3008
-3.2548 EVENTUALLY, -0.2967
-3.2548 EXACTLY -0.3005
-2.9538 EXCESSIVE -0.3005
-3.2548 EXERCISE -0.3008
-3.2548 EXPECTED -0.2930
-3.2548 FACT. -0.2762
-3.2548 FAIL -0.2930
-3.2548 FEELINGS -0.2984
-3.2548 FEW -0.3008
-2.9538 FIND -0.3005
-3.2548 FINE, -0.3008
-3.2548 FOLLOWING -0.3008
-2.4766 FOR -0.2885
-3.2548 FOR. -0.2762
-3.2548 FORGET. -0.2762
-3.2548 FORTUNATELY, -0.2964
-3.2548 FOUND -0.3005
-3.2548 FREQUENCY. -0.2762
-3.2548 FRIDAY. -0.2762
-3.2548 FRIEND. -0.2762
-2.9538 FROM -0.2940
-3.2548 FUNDING. -0.2762
-3.2548 FURTHER -0.3008
-3.2548 GET -0.2989
-3.2548 GETTING -0.3008
-3.2548 GLOBAL -0.3008
-2.9538 GO -0.3005
-2.9538 GOING -0.2927
-3.2548 GOOD -0.3003
-2.9538 GOT -0.2927
-3.2548 GOVERNOR -0.2996
-2.4766 HAD -0.2860
-3.2548 HAND, -0.2942
-3.2548 HAPPENED. -0.2762
-3.2548 HARD -0.3005
-3.2548 HAS -0.3005
-2.5558 HAVE -0.2991
-2.2134 HE -0.2932
-3.2548 HEART -0.3008
-3.2548 HER -0.3008
-3.2548 HERE, -0.3008
-3.2548 HERE. -0.2762
-3.2548 HE’D -0.3003
-3.2548 HIM? -0.2762
-3.2548 HIS -0.3008
-3.2548 HOLDS -0.3008
-3.2548 HONEST, -0.2998
-3.2548 HOUSE -0.2979
-2.9538 HOW -0.2952
-3.2548 HUMOR -0.2989
-3.2548 HUMOR. -0.2762
-2.1087 I -0.2913
-3.2548 IDEA -0.3008
-2.9538 IF -0.2969
-3.2548 IMAGINE -0.2991
-2.3005 IN -0.2922
-3.2548 INSTANCE. -0.2762
-3.2548 INSTEAD -0.2984
-3.2548 INTERVIEWED -0.2996
-2.4097 IS -0.2840
-3.2548 IS. -0.2762
-3.2548 ISSUES -0.2930
-1.9760 IT -0.2903
-2.9538 IT. -0.2762
-3.2548 ITS -0.3008
-2.4097 IT’S -0.2942
-2.5558 I’M -0.2998
-3.2548 JOB. -0.2762
-3.2548 JOGS -0.2981
-2.9538 JUST -0.3005
-3.2548 KID -0.3008
-2.9538 KIDS -0.2996
-2.9538 KNOW -0.2991
-3.2548 LAST -0.3008
-3.2548 LATE. -0.2762
-3.2548 LATER. -0.2762
-3.2548 LATTER -0.3005
-3.2548 LEAD -0.2930
-3.2548 LEARN -0.3008
-3.2548 LEAST. -0.2762
-3.2548 LEFT. -0.2762
-3.2548 LET -0.2942
-2.9538 LIKE -0.2883
-3.2548 LIKE. -0.2762
-3.2548 LIKELY -0.2930
-3.2548 LIMIT, -0.2989
-3.2548 LIST -0.3008
-3.2548 LITTLE -0.3003
-3.2548 LOCATED -0.2989
-2.9538 LONG -0.2979
-3.2548 LONGER -0.2967
-3.2548 LOOK -0.3008
-2.9538 LOOKS -0.3003
-3.2548 LOT -0.2989
-3.2548 LUNCH. -0.2762
-3.2548 MADE -0.2942
-2.9538 MAKE -0.2962
-3.2548 MANAGE -0.2930
-3.2548 MANY -0.3005
-3.2548 MATTER. -0.2762
-2.9538 MAY -0.2991
-3.2548 ME -0.2998
-3.2548 ME. -0.2762
-3.2548 MEAN, -0.2993
-3.2548 MEASURES. -0.2762
-3.2548 MEDIA -0.3003
-3.2548 MEETING. -0.2762
-3.2548 MESSAGE -0.2979
-3.2548 MINUTES -0.3008
-3.2548 MORE -0.3008
-3.2548 MUCH -0.3008
-3.2548 MUCH. -0.2762
-3.2548 NEED -0.2967
-3.2548 NEEDS -0.2930
-3.2548 NEW -0.3008
-2.7777 NEXT. -0.2762
-3.2548 NIGHT? -0.2762
-2.5558 NO -0.2998
-2.5558 NOT -0.2913
-3.2548 NOTHING -0.2989
-3.2548 NOW. -0.2762
-3.2548 NUMBER -0.2984
-3.2548 OBAMA -0.2993
-2.2134 OF -0.2913
-3.2548 OF? -0.2762
-3.2548 OFFICE. -0.2762
-3.2548 OFTEN. -0.2762
-2.4766 ON -0.2918
-2.9538 ONE -0.2969
-3.2548 ONLY -0.2979
-3.2548 OPENED -0.2942
-3.2548 OR -0.3008
-3.2548 ORDER -0.2930
-3.2548 OTHER -0.3008
-3.2548 OTHER. -0.2762
-3.2548 OTHERS, -0.3008
-2.6527 OUT -0.2932
-3.2548 OUT? -0.2762
-3.2548 OVER. -0.2762
-3.2548 OWN? -0.2762
-3.2548 PARK -0.2964
-3.2548 PARTICULAR -0.3008
-3.2548 PASSED. -0.2762
-3.2548 PAY -0.2993
-2.9538 PEOPLE -0.3003
-3.2548 PICK -0.3003
-3.2548 PLACE -0.3008
-3.2548 PLANNED. -0.2762
-3.2548 POINTED -0.3001
-3.2548 POLICE -0.2996
-3.2548 POLITICAL -0.3008
-2.7777 PREVIOUS. -0.2762
-2.9538 PRICE? -0.2762
-3.2548 PROBLEM -0.2981
-3.2548 PROBLEMS. -0.2762
-3.2548 PROFIT. -0.2762
-3.2548 PROJECT. -0.2762
-3.2548 QUESTIONS, -0.3005
-3.2548 QUICKLY. -0.2762
-3.2548 RAISE -0.2942
-3.2548 RAISED. -0.2762
-3.2548 RANGE -0.2984
-3.2548 RATHER -0.3008
-3.2548 REASON -0.2930
-3.2548 RECONSIDER -0.2942
-3.2548 REDUCE -0.3008
-3.2548 REMARKS. -0.2762
-3.2548 REPORTS, -0.2964
-3.2548 RESEARCHERS -0.3008
-3.2548 RESULT -0.2998
-3.2548 RESULTED -0.2989
-3.2548 ROOM -0.2989
-3.2548 SAID -0.3008
-3.2548 SALAD. -0.2762
-3.2548 SAY -0.3008
-2.9538 SEE -0.2925
-2.9538 SEEMS -0.2883
-3.2548 SENSE -0.2984
-3.2548 SET -0.3003
-2.9538 SEVERAL -0.3005
-3.2548 SHARED -0.2967
-2.5558 SHE -0.2986
-3.2548 SINGLE -0.3008
-3.2548 SIT -0.2998
-3.2548 SMOKING -0.2998
-3.2548 SNOW -0.3008
-3.2548 SO -0.2993
-3.2548 SOLUTIONS. -0.2762
-2.9538 SOME -0.3005
-3.2548 SOON -0.2981
-3.2548 SORT -0.2984
-3.2548 SOUGHT -0.2930
-3.2548 SPEAK -0.2930
-3.2548 STARTED -0.2930
-2.9538 STILL -0.2984
-3.2548 STILL. -0.2762
-3.2548 STOPPING -0.2996
-3.2548 STRANGE -0.3008
-2.9538 SUCH -0.2937
-3.2548 SUMMER. -0.2762
-3.2548 SUPPOSED -0.2930
-2.9538 SURE -0.3001
-3.2548 SWIMS. -0.2762
-3.2548 TAKE -0.3008
-2.9538 TEND -0.2930
-3.2548 TERM -0.3008
-3.2548 TERMS -0.2984
-3.2548 THAN -0.3008
-2.4097 THAT -0.2873
-3.2548 THAT. -0.2762
-1.8076 THE -0.2935
-3.2548 THEN -0.3008
-2.5558 THERE -0.2959
-3.2548 THERE. -0.2762
-3.2548 THERE’S -0.3008
-2.5558 THEY -0.2986
-2.7777 THING -0.2959
-2.9538 THINK -0.2984
-3.2548 THINKING -0.3001
-2.7777 THIS -0.2991
-2.9538 THIS. -0.2762
-3.2548 THOSE -0.3008
-3.2548 THOUGH -0.2964
-3.2548 THREE -0.3005
-3.2548 THROUGH. -0.2762
-3.2548 TIME -0.2996
-3.2548 TIME. -0.2762
-2.9538 TIMES -0.3001
-3.2548 TIRED -0.3003
-1.7363 TO -0.2880
-3.2548 TO. -0.2762
-3.2548 TODAY -0.2998
-3.2548 TOGETHER -0.2981
-3.2548 TOO -0.3008
-3.2548 TOOK -0.3008
-3.2548 TOUCH -0.2998
-3.2548 TOUGH -0.3008
-3.2548 TRANSMITTED -0.3008
-3.2548 TRIED -0.3005
-3.2548 TRUE -0.2996
-3.2548 TRY -0.3003
-3.2548 TWENTY -0.3005
-3.2548 TWO -0.2930
-2.7777 UP -0.2925
-3.2548 USED -0.2930
-3.2548 VERY -0.3008
-3.2548 VOICE. -0.2762
-3.2548 WAIT. -0.2762
-3.2548 WALKED -0.3008
-3.2548 WARMING. -0.2762
-2.1408 WAS -0.2795
-2.7777 WE -0.2984
-2.9538 WELL -0.2979
-3.2548 WELL, -0.2981
-3.2548 WELL. -0.2762
-3.2548 WENT -0.2996
-3.2548 WERE -0.3008
-2.3517 WHAT -0.2782
-3.2548 WHEELS -0.3003
-3.2548 WHEREABOUTS. -0.2762
-3.2548 WHILE -0.3003
-3.2548 WHO -0.2996
-3.2548 WHOLE -0.3003
-2.9538 WHY -0.2952
-2.9538 WILL -0.3003
-2.9538 WITH -0.3003
-3.2548 WITH. -0.2762
-3.2548 WITHOUT -0.3008
-2.9538 WORK -0.2986
-3.2548 WORK, -0.3005
-3.2548 WORLDWIDE. -0.2762
-3.2548 WORRY -0.3001
-3.2548 WORTH -0.2942
-3.2548 WOULD -0.3008
-3.2548 WRONG -0.3005
-2.1756 YOU -0.2952
-2.9538 YOUR -0.3005
-3.2548 YOURS, -0.2981

\2-grams:
-2.3010 <s> A -0.2888
-2.3010 <s> AFTER 0.0000
-2.3010 <s> AND -0.2218
-2.3010 <s> ARE -0.2218
-2.3010 <s> AS -0.2825
-2.3010 <s> BARGAINS 0.0000
-2.3010 <s> BASED 0.0000
-1.8239 <s> BEGINNING. 0.0000
-2.3010 <s> BUT -0.1761
-2.3010 <s> CHILDREN, 0.0000
-2.3010 <s> DID -0.2041
-2.3010 <s> DO 0.0000
-1.8239 <s> END. 0.0000
-2.3010 <s> EVENTUALLY, 0.0000
-2.0000 <s> EXCESSIVE 0.0000
-2.3010 <s> FORTUNATELY, 0.0000
-2.3010 <s> HARD 0.0000
-1.4559 <s> HE -0.1047
-2.3010 <s> HOW -0.1761
-1.2596 <s> I -0.0843
-1.8239 <s> IT -0.2126
-1.5229 <s> IT’S -0.0580
-2.0000 <s> I’M -0.1461
-2.3010 <s> LIST 0.0000
-2.3010 <s> MANY 0.0000
-1.8239 <s> NEXT. 0.0000
-2.3010 <s> NO -0.2041
-2.0000 <s> NOT -0.2041
-2.3010 <s> OBAMA 0.0000
-2.3010 <s> ON -0.2218
-2.3010 <s> PARK 0.0000
-1.8239 <s> PREVIOUS. 0.0000
-1.6990 <s> SHE -0.0792
-2.0000 <s> THAT -0.2341
-1.3979 <s> THE -0.2341
-1.8239 <s> THERE -0.1461
-2.3010 <s> THERE’S 0.0000
-1.6990 <s> THEY -0.0792
-2.3010 <s> TO -0.2877
-2.3010 <s> UP -0.2218
-2.0000 <s> WE -0.1249
-2.3010 <s> WELL, 0.0000
-1.8239 <s> WHAT -0.2109
-1.6990 <s> YOU -0.1996
-1.5563 A BIT 0.0000
-1.5563 A CHALLENGE. 0.0000
-1.5563 A CONCERN 0.0000
-1.5563 A COUPLE 0.0000
-1.5563 A FEW 0.0000
-1.5563 A FURTHER 0.0000
-1.5563 A LITTLE 0.0000
-1.5563 A LOT 0.0000
-1.5563 A NUMBER 0.0000
-1.5563 A POLITICAL 0.0000
-1.5563 A PROFIT. 0.0000
-1.5563 A RANGE 0.0000
-1.5563 A RESULT 0.0000
-1.5563 A ROOM 0.0000
-1.5563 A SINGLE 0.0000
-1.5563 A STRANGE 0.0000
-1.5563 A THING -0.2218
-1.5563 A WHILE 0.0000
-0.9031 ABOUT CHANGING 0.0000
-0.9031 ABOUT IT -0.2894
-0.9031 ABOUT IT. 0.0000
-0.9031 ABOUT THIS. 0.0000
-0.3010 ACCIDENT. </s> -0.3010
-0.3010 ACTUALLY A -0.2888
-0.3010 ADDITION. </s> -0.3010
-0.3010 ADDRESS THE -0.2932
-0.3010 ADULTS, TEND 0.0000
-0.3010 AFTER A -0.2888
-0.3010 AFTERNOON. </s> -0.3010
-0.3010 ALL THIS. 0.0000
-0.3010 ALL? </s> -0.3010
-0.3010 ALTERNATIVE SOLUTIONS. 0.0000
-0.3010 AN ACCIDENT. 0.0000
-0.7782 AND AS -0.2825
-0.7782 AND THE -0.2932
-0.7782 AND WAIT. 0.0000
-0.3010 ANIMOSITY. </s> -0.3010
-0.6021 ANY KIDS -0.1761
-0.6021 ANY OTHERS, 0.0000
-0.3010 APART FROM -0.1761
-0.3010 APPROACHES, IN -0.2762
-0.7782 ARE CURBED. 0.0000
-0.7782 ARE SOME -0.1761
-0.7782 ARE THERE -0.2553
-1.3802 AS A -0.2888
-1.3802 AS EASY -0.1761
-1.3802 AS HE -0.2596
-1.3802 AS HOW -0.1761
-1.3802 AS IF -0.1761
-1.3802 AS LONG -0.1761
-1.3802 AS SOON 0.0000
-1.3802 AS SWIMS. 0.0000
-1.3802 AS TO -0.2944
-1.3802 AS WELL -0.1761
-1.3802 AS WELL. 0.0000
-1.3802 AS YOU -0.2825
-0.6990 AT ALL? 0.0000
-1.0000 AT LEAST. 0.0000
-0.6990 AT THE -0.2852
-0.3010 ATTITUDE. </s> -0.3010
-0.3010 AWARE. </s> -0.3010
-0.3010 AWARENESS-RAISING. </s> -0.3010
-0.3010 BACK TO -0.2944
-0.3010 BACK. </s> -0.3010
-0.3010 BARGAINS CAN -0.2553
-0.3010 BASED ON -0.2218
-1.0792 BE A -0.2888
-1.0792 BE EXPECTED 0.0000
-1.0792 BE FOUND 0.0000
-1.0792 BE HONEST, 0.0000
-1.0792 BE INTERVIEWED 0.0000
-1.0792 BE TRANSMITTED 0.0000
-0.3010 BECAUSE I -0.2852
-0.7782 BEFORE DINNER. 0.0000
-0.7782 BEFORE I -0.2852
-0.7782 BEFORE STOPPING 0.0000
-0.3010 BEFOREHAND. </s> -0.3010
-0.3010 BEGINNING. </s> -0.3010
-0.3010 BELIEVE IT -0.2775
-0.3010 BIT OF -0.2808
-0.3010 BOARD SOUGHT 0.0000
-0.3010 BUSINESS DID -0.2553
-0.3010 BUSY AT -0.2041
-0.6021 BUT WE -0.2218
-0.6021 BUT WHAT -0.2730
-0.3010 BUT, I -0.2852
-0.3010 BY TO -0.2944
-0.6021 CALL FOR -0.2632
-0.6021 CALL YOU -0.2825
-0.3010 CAMPING A -0.2888
-1.0000 CAN BE -0.2632
-1.0000 CAN COME -0.2218
-1.0000 CAN GO -0.1761
-1.0000 CAN HE -0.2808
-1.0000 CAN LEAD 0.0000
-0.9031 CAN’T BE -0.2632
-0.9031 CAN’T EVEN -0.1761
-0.9031 CAN’T IMAGINE 0.0000
-0.9031 CAN’T JUST -0.1761
-0.3010 CAREERS. </s> -0.3010
-0.3010 CARRY OUT -0.2430
-0.3010 CHALLENGE. </s> -0.3010
-0.3010 CHANGED THAT. 0.0000
-0.3010 CHANGING CAREERS. 0.0000
-0.3010 CHEAP, IT -0.2527
-0.3010 CHILDREN, RATHER 0.0000
-0.7782 COME BACK 0.0000
-0.7782 COME OF -0.2808
-0.7782 COME OUT -0.2430
-0.3010 COMMANDS HERE, 0.0000
-0.3010 CONCERN NOW. 0.0000
-0.3010 CONCERNS WERE 0.0000
-0.3010 CONFUSION AS -0.2825
-0.3010 CONSIST OF? 0.0000
-0.3010 COSTS </s> -0.3010
-0.3010 COULD EMAIL 0.0000
-0.3010 COUPLE OF -0.2808
-0.3010 COURSE. </s> -0.3010
-0.3010 CRITICISM RESULTED 0.0000
-0.3010 CURBED. </s> -0.3010
-0.3010 DANCE. </s> -0.3010
-0.3010 DEAL WITH. 0.0000
-0.3010 DEFEND THOSE 0.0000
-0.3010 DELICIOUS. </s> -0.3010
-1.0000 DID HE -0.2808
-1.0000 DID MAKE -0.1761
-1.0000 DID THIS -0.2218
-0.6990 DID YOU -0.2632
-0.3010 DINNER. </s> -0.3010
-0.3010 DISEASE. </s> -0.3010
-0.3010 DO YOU -0.2632
-0.3010 DOES IT -0.2894
-0.6021 DON’T KNOW 0.0000
-0.6021 DON’T WORRY 0.0000
-0.3010 DOOR. </s> -0.3010
-0.3010 DRAMA TODAY 0.0000
-0.3010 DRINK, THEN 0.0000
-0.3010 DRINKS, SHE -0.2553
-0.3010 DROPPED BY 0.0000
-0.3010 DUE TO -0.2944
-0.6021 EACH OTHER. 0.0000
-0.6021 EACH TO -0.2944
-0.6021 EASY ENOUGH. 0.0000
-0.6021 EASY TO -0.2944
-0.3010 EFFECTS? </s> -0.3010
-0.3010 EMAIL ME 0.0000
-0.3010 EMERGED FROM -0.1761
-0.3010 END. </s> -0.3010
-0.3010 ENOUGH. </s> -0.3010
-0.6021 EVEN THE -0.2932
-0.6021 EVEN THOUGH 0.0000
-0.3010 EVENTS CHANGED 0.0000
-0.3010 EVENTUALLY, A -0.2888
-0.3010 EXACTLY WHY -0.1761
-0.6021 EXCESSIVE CRITICISM 0.0000
-0.6021 EXCESSIVE SMOKING 0.0000
-0.3010 EXERCISE BECAUSE 0.0000
-0.3010 EXPECTED TO -0.2944
-0.3010 FACT. </s> -0.3010
-0.3010 FAIL TO -0.2944
-0.3010 FEELINGS OF -0.2808
-0.3010 FEW DRINKS, 0.0000
-0.6021 FIND ALTERNATIVE 0.0000
-0.6021 FIND OUT? 0.0000
-0.3010 FINE, BUT, 0.0000
-0.3010 FOLLOWING REMARKS. 0.0000
-1.0792 FOR A -0.2888
-1.0792 FOR EVEN -0.1761
-1.0792 FOR INSTANCE. 0.0000
-1.0792 FOR LUNCH. 0.0000
-1.0792 FOR THE -0.2932
-1.0792 FOR TOUGH 0.0000
-0.3010 FOR. </s> -0.3010
-0.3010 FORGET. </s> -0.3010
-0.3010 FORTUNATELY, IT -0.2775
-0.3010 FOUND IF -0.1761
-0.3010 FREQUENCY. </s> -0.3010
-0.3010 FRIDAY. </s> -0.3010
-0.3010 FRIEND. </s> -0.3010
-0.6021 FROM HIM? 0.0000
-0.6021 FROM THE -0.2932
-0.3010 FUNDING. </s> -0.3010
-0.3010 FURTHER REASON 0.0000
-0.3010 GET IN -0.2762
-0.3010 GETTING LATE. 0.0000
-0.3010 GLOBAL WARMING. 0.0000
-0.6021 GO CAMPING 0.0000
-0.6021 GO INSTEAD 0.0000
-0.6021 GOING THROUGH. 0.0000
-0.6021 GOING TO -0.2877
-0.3010 GOOD THING -0.2218
-0.6021 GOT PLANNED. 0.0000
-0.6021 GOT TO -0.2944
-0.3010 GOVERNOR FOR -0.2632
-1.0792 HAD A -0.2888
-1.0792 HAD NO -0.2553
-1.0792 HAD PASSED. 0.0000
-1.0792 HAD SEVERAL -0.1761
-1.0792 HAD SUCH -0.1761
-1.0792 HAD TO -0.2944
-0.3010 HAND, THE -0.2932
-0.3010 HAPPENED. </s> -0.3010
-0.3010 HARD TIMES -0.1761
-0.3010 HAS GOT -0.1761
-1.0000 HAVE ANY -0.1761
-1.0000 HAVE EACH -0.1761
-1.0000 HAVE GOT -0.1761
-1.0000 HAVE QUESTIONS, 0.0000
-1.0000 HAVE TO. 0.0000
-1.0414 HE CAN -0.2041
-1.3424 HE HAD -0.2632
-1.3424 HE HAS 0.0000
-1.3424 HE MADE 0.0000
-1.3424 HE SAID 0.0000
-1.3424 HE SAY 0.0000
-1.3424 HE WAS -0.2840
-1.3424 HE WENT 0.0000
-1.3424 HE WILL -0.1761
-1.3424 HE WOULD 0.0000
-0.3010 HEART DISEASE. 0.0000
-0.3010 HER FRIEND. 0.0000
-0.3010 HERE, THREE 0.0000
-0.3010 HERE. </s> -0.3010
-0.3010 HE’D COME -0.2218
-0.3010 HIM? </s> -0.3010
-0.3010 HIS ATTITUDE. 0.0000
-0.3010 HOLDS TRUE 0.0000
-0.3010 HONEST, I’M -0.2553
-0.3010 HOUSE WAS -0.2840
-0.6021 HOW DID -0.2041
-0.6021 HOW IT -0.2894
-0.3010 HUMOR IN -0.2762
-0.3010 HUMOR. </s> -0.3010
-1.4472 I CAN’T -0.2430
-1.1461 I DON’T 0.0000
-1.4472 I EXERCISE 0.0000
-1.4472 I FAIL 0.0000
-1.4472 I HAD -0.2632
-1.4472 I HAVE -0.2553
-1.1461 I LIKE 0.0000
-1.4472 I MEAN, 0.0000
-1.4472 I OPENED 0.0000
-1.4472 I TEND 0.0000
-1.4472 I WAS -0.2840
-1.4472 I WILL -0.1761
-0.3010 IDEA EMERGED 0.0000
-0.6021 IF NO -0.2553
-0.6021 IF YOU -0.2825
-0.3010 IMAGINE WHAT -0.2730
-1.2553 IN ADDITION. 0.0000
-1.2553 IN ALL 0.0000
-1.2553 IN FACT. 0.0000
-1.2553 IN FEELINGS 0.0000
-1.2553 IN ORDER 0.0000
-1.2553 IN PARTICULAR 0.0000
-1.2553 IN TERMS 0.0000
-1.2553 IN THE -0.2932
-1.2553 IN TOUCH 0.0000
-0.3010 INSTANCE. </s> -0.3010
-0.3010 INSTEAD OF -0.2808
-0.3010 INTERVIEWED FOR -0.2632
-1.1461 IS DUE 0.0000
-1.1461 IS IT -0.2894
-1.1461 IS NO -0.2553
-1.1461 IS THAT -0.2688
-1.1461 IS TO -0.2944
-1.1461 IS WITH -0.1761
-1.1461 IS YOUR -0.1761
-0.3010 IS. </s> -0.3010
-0.3010 ISSUES TO -0.2944
-1.5798 IT AS -0.2825
-1.5798 IT CHEAP, 0.0000
-1.5798 IT CONSIST 0.0000
-1.5798 IT HAPPENED. 0.0000
-1.2788 IT IS -0.2341
-1.2788 IT LOOKS 0.0000
-1.2788 IT SEEMS 0.0000
-1.5798 IT SO 0.0000
-1.5798 IT TOO 0.0000
-1.5798 IT TOOK 0.0000
-1.5798 IT USED 0.0000
-0.9777 IT WAS -0.2285
-1.5798 IT WORTH 0.0000
-0.3010 IT. </s> -0.3010
-0.3010 ITS WHEREABOUTS. 0.0000
-1.1461 IT’S A -0.2888
-1.1461 IT’S ACTUALLY 0.0000
-1.1461 IT’S FINE, 0.0000
-1.1461 IT’S NOT -0.2553
-1.1461 IT’S SORT 0.0000
-1.1461 IT’S SUPPOSED 0.0000
-1.1461 IT’S YOURS, 0.0000
-0.6990 I’M GOING 0.0000
-1.0000 I’M HERE. 0.0000
-1.0000 I’M LIKELY 0.0000
-1.0000 I’M THINKING 0.0000
-0.3010 JOB. </s> -0.3010
-0.3010 JOGS AS -0.2825
-0.6021 JUST LET 0.0000
-0.6021 JUST SIT 0.0000
-0.3010 KID NEEDS 0.0000
-0.6021 KIDS AT -0.2041
-0.6021 KIDS TAKE 0.0000
-0.3010 KNOW WHAT -0.2430
-0.3010 LAST NIGHT? 0.0000
-0.3010 LATE. </s> -0.3010
-0.3010 LATER. </s> -0.3010
-0.3010 LATTER MAY -0.1761
-0.3010 LEAD TO -0.2944
-0.3010 LEARN QUICKLY. 0.0000
-0.3010 LEAST. </s> -0.3010
-0.3010 LEFT. </s> -0.3010
-0.3010 LET THE -0.2932
-0.6021 LIKE IT -0.2894
-0.6021 LIKE TO -0.2877
-0.3010 LIKE. </s> -0.3010
-0.3010 LIKELY TO -0.2944
-0.3010 LIMIT, IN -0.2762
-0.3010 LIST COMMANDS 0.0000
-0.3010 LITTLE BEFORE -0.2218
-0.3010 LOCATED IN -0.2762
-0.6021 LONG AS -0.2825
-0.6021 LONG TERM 0.0000
-0.3010 LONGER A -0.2888
-0.3010 LOOK FOR. 0.0000
-0.6021 LOOKS EASY -0.1761
-0.6021 LOOKS LIKE. 0.0000
-0.3010 LOT IN -0.2762
-0.3010 LUNCH. </s> -0.3010
-0.3010 MADE THE -0.2932
-0.6021 MAKE A -0.2888
-0.6021 MAKE SURE -0.1761
-0.3010 MANAGE TO -0.2944
-0.3010 MANY PEOPLE -0.1761
-0.3010 MATTER. </s> -0.3010
-0.6021 MAY BE -0.2632
-0.6021 MAY STILL -0.1761
-0.3010 ME AT -0.2553
-0.3010 ME. </s> -0.3010
-0.3010 MEAN, IS -0.2688
-0.3010 MEASURES. </s> -0.3010
-0.3010 MEDIA THIS -0.2218
-0.3010 MEETING. </s> -0.3010
-0.3010 MESSAGE WAS -0.2840
-0.3010 MINUTES STILL. 0.0000
-0.3010 MORE OFTEN. 0.0000
-0.3010 MUCH MORE 0.0000
-0.3010 MUCH. </s> -0.3010
-0.3010 NEED A -0.2888
-0.3010 NEEDS TO -0.2877
-0.3010 NEW BOARD 0.0000
-0.3010 NEXT. </s> -0.3010
-0.3010 NIGHT? </s> -0.3010
-1.0000 NO LONGER 0.0000
-0.6990 NO ONE 0.0000
-1.0000 NO TIME 0.0000
-1.0000 NO VOICE. 0.0000
-1.0000 NOT A -0.2888
-1.0000 NOT AS -0.2825
-1.0000 NOT ONLY 0.0000
-1.0000 NOT VERY 0.0000
-1.0000 NOT WHAT -0.2730
-0.3010 NOTHING IN -0.2762
-0.3010 NOW. </s> -0.3010
-0.3010 NUMBER OF -0.2808
-0.3010 OBAMA IS -0.2688
-1.3424 OF ANIMOSITY. 0.0000
-1.3424 OF CONCERNS 0.0000
-1.3424 OF COURSE. 0.0000
-1.3424 OF DRAMA 0.0000
-1.3424 OF EVENTS 0.0000
-1.3424 OF HUMOR. 0.0000
-1.3424 OF ME. 0.0000
-1.3424 OF MINUTES 0.0000
-1.3424 OF PRICE? 0.0000
-1.3424 OF THE -0.2932
-1.3424 OF WHY -0.1761
-0.3010 OF? </s> -0.3010
-0.3010 OFFICE. </s> -0.3010
-0.3010 OFTEN. </s> -0.3010
-1.0792 ON FOR -0.2632
-1.0792 ON FRIDAY. 0.0000
-1.0792 ON HIS 0.0000
-0.7782 ON THE -0.2852
-1.0792 ON YOUR -0.1761
-0.6021 ONE ABOUT -0.2430
-0.6021 ONE WAS -0.2840
-0.3010 ONLY WAS -0.2840
-0.3010 OPENED THE -0.2932
-0.3010 OR TWO 0.0000
-0.3010 ORDER TO -0.2944
-0.3010 OTHER HAND, 0.0000
-0.3010 OTHER. </s> -0.3010
-0.3010 OTHERS, APART 0.0000
-0.9031 OUT A -0.2888
-0.9031 OUT ON -0.2632
-0.9031 OUT THAT -0.2688
-0.9031 OUT WITHOUT 0.0000
-0.3010 OUT? </s> -0.3010
-0.3010 OVER. </s> -0.3010
-0.3010 OWN? </s> -0.3010
-0.3010 PARK IT -0.2894
-0.3010 PARTICULAR WRONG 0.0000
-0.3010 PASSED. </s> -0.3010
-0.3010 PAY THAT -0.2688
-0.6021 PEOPLE BELIEVE 0.0000
-0.6021 PEOPLE MAY -0.1761
-0.3010 PICK UP -0.2218
-0.3010 PLACE THERE. 0.0000
-0.3010 PLANNED. </s> -0.3010
-0.3010 POINTED OUT -0.2430
-0.3010 POLICE HAD -0.2632
-0.3010 POLITICAL MATTER. 0.0000
-0.3010 PREVIOUS. </s> -0.3010
-0.3010 PRICE? </s> -0.3010
-0.3010 PROBLEM YOU -0.2825
-0.3010 PROBLEMS. </s> -0.3010
-0.3010 PROFIT. </s> -0.3010
-0.3010 PROJECT. </s> -0.3010
-0.3010 QUESTIONS, SUCH -0.1761
-0.3010 QUICKLY. </s> -0.3010
-0.3010 RAISE THE -0.2932
-0.3010 RAISED. </s> -0.3010
-0.3010 RANGE OF -0.2808
-0.3010 RATHER THAN 0.0000
-0.3010 REASON TO -0.2944
-0.3010 RECONSIDER THE -0.2932
-0.3010 REDUCE COSTS 0.0000
-0.3010 REMARKS. </s> -0.3010
-0.3010 REPORTS, IT -0.2775
-0.3010 RESEARCHERS TRIED 0.0000
-0.3010 RESULT NOT -0.2553
-0.3010 RESULTED IN -0.2762
-0.3010 ROOM IN -0.2762
-0.3010 SAID HE’D 0.0000
-0.3010 SALAD. </s> -0.3010
-0.3010 SAY LAST 0.0000
-0.6021 SEE IS -0.2688
-0.6021 SEE THE -0.2932
-0.6021 SEEMS IT -0.2527
-0.6021 SEEMS TO -0.2944
-0.3010 SENSE OF -0.2808
-0.3010 SET UP -0.2218
-0.6021 SEVERAL APPROACHES, 0.0000
-0.6021 SEVERAL ISSUES 0.0000
-0.3010 SHARED A -0.2888
-1.0000 SHE DROPPED 0.0000
-1.0000 SHE HAD -0.2632
-1.0000 SHE JOGS 0.0000
-1.0000 SHE POINTED 0.0000
-1.0000 SHE STARTED 0.0000
-0.3010 SINGLE IDEA 0.0000
-0.3010 SIT THERE -0.2553
-0.3010 SMOKING CAN -0.2553
-0.3010 SNOW MUCH 0.0000
-0.3010 SO THAT -0.2688
-0.3010 SOLUTIONS. </s> -0.3010
-0.6021 SOME CONFUSION 0.0000
-0.6021 SOME PROBLEMS. 0.0000
-0.3010 SOON AS -0.2825
-0.3010 SORT OF -0.2808
-0.3010 SOUGHT TO -0.2944
-0.3010 SPEAK TO -0.2944
-0.3010 STARTED TO -0.2944
-0.6021 STILL BE -0.2632
-0.6021 STILL HAVE -0.2553
-0.3010 STILL. </s> -0.3010
-0.3010 STOPPING FOR -0.2632
-0.3010 STRANGE SENSE 0.0000
-0.6021 SUCH A -0.2888
-0.6021 SUCH AS -0.2825
-0.3010 SUMMER. </s> -0.3010
-0.3010 SUPPOSED TO -0.2944
-0.6021 SURE BEFORE -0.2218
-0.6021 SURE EXACTLY 0.0000
-0.3010 SWIMS. </s> -0.3010
-0.3010 TAKE OVER. 0.0000
-0.3010 TEND TO -0.2808
-0.3010 TERM EFFECTS? 0.0000
-0.3010 TERMS OF -0.2808
-0.3010 THAN ADULTS, 0.0000
-1.1461 THAT HOLDS 0.0000
-1.1461 THAT IS. 0.0000
-1.1461 THAT IT -0.2527
-1.1461 THAT KID 0.0000
-1.1461 THAT LATER. 0.0000
-1.1461 THAT THE -0.2932
-1.1461 THAT THEY -0.2553
-0.3010 THAT. </s> -0.3010
-1.7482 THE BUSINESS 0.0000
-1.7482 THE DOOR. 0.0000
-1.7482 THE FOLLOWING 0.0000
-1.7482 THE FREQUENCY. 0.0000
-1.7482 THE GOOD 0.0000
-1.7482 THE GOVERNOR 0.0000
-1.7482 THE HOUSE 0.0000
-1.7482 THE HUMOR 0.0000
-1.7482 THE JOB. 0.0000
-1.7482 THE KIDS -0.1761
-1.7482 THE LATTER 0.0000
-1.7482 THE LONG -0.1761
-1.7482 THE MEDIA 0.0000
-1.7482 THE MEETING. 0.0000
-1.7482 THE MESSAGE 0.0000
-1.7482 THE NEW 0.0000
-1.7482 THE OFFICE. 0.0000
-1.7482 THE OTHER 0.0000
-1.7482 THE POLICE 0.0000
-1.7482 THE PRICE? 0.0000
-1.7482 THE PROBLEM 0.0000
-1.7482 THE PROJECT. 0.0000
-1.7482 THE REPORTS, 0.0000
-1.7482 THE RESEARCHERS 0.0000
-1.7482 THE SUMMER. 0.0000
-1.7482 THE TIME. 0.0000
-1.7482 THE WHEELS 0.0000
-1.7482 THE WHOLE 0.0000
-0.3010 THEN LEFT. 0.0000
-1.0000 THERE AND -0.2218
-1.0000 THERE ANY -0.1761
-1.0000 THERE ARE -0.2218
-0.6990 THERE WAS -0.2663
-0.3010 THERE. </s> -0.3010
-0.3010 THERE’S NOTHING 0.0000
-1.0000 THEY CAN’T -0.2430
-1.0000 THEY GO -0.1761
-1.0000 THEY NEED 0.0000
-1.0000 THEY STILL -0.1761
-1.0000 THEY WALKED 0.0000
-0.7782 THING IS -0.2688
-0.7782 THING OR 0.0000
-0.7782 THING WAS -0.2840
-0.6021 THINK ABOUT -0.2430
-0.6021 THINK IT’S -0.2688
-0.3010 THINKING ABOUT -0.2430
-0.7782 THIS AFTERNOON. 0.0000
-0.7782 THIS ON -0.2632
-0.7782 THIS SALAD. 0.0000
-0.3010 THIS. </s> -0.3010
-0.3010 THOSE WHO 0.0000
-0.3010 THOUGH IT -0.2775
-0.3010 THREE TIMES -0.1761
-0.3010 THROUGH. </s> -0.3010
-0.3010 TIME HAD -0.2632
-0.3010 TIME. </s> -0.3010
-0.6021 TIMES CALL -0.1761
-0.6021 TIMES EACH -0.1761
-0.3010 TIRED AND -0.2218
-1.8195 TO ADDRESS 0.0000
-1.5185 TO BE -0.2218
-1.8195 TO CARRY 0.0000
-1.8195 TO COME -0.2218
-1.8195 TO DANCE. 0.0000
-1.8195 TO DEAL 0.0000
-1.8195 TO DRINK, 0.0000
-1.8195 TO FIND -0.1761
-1.8195 TO FORGET. 0.0000
-1.8195 TO GET 0.0000
-1.8195 TO GLOBAL 0.0000
-1.8195 TO HEART 0.0000
-1.8195 TO ITS 0.0000
-1.8195 TO JUST -0.1761
-1.8195 TO LEARN 0.0000
-1.8195 TO LOOK 0.0000
-1.8195 TO MAKE -0.1761
-1.8195 TO NO -0.2041
-1.8195 TO PICK 0.0000
-1.8195 TO RAISE 0.0000
-1.8195 TO RECONSIDER 0.0000
-1.8195 TO REDUCE 0.0000
-1.8195 TO SEE -0.1761
-1.8195 TO SNOW 0.0000
-1.8195 TO THAT -0.2688
-1.5185 TO THINK 0.0000
-1.8195 TO TRY 0.0000
-1.8195 TO TWENTY 0.0000
-1.5185 TO WORK 0.0000
-1.8195 TO WORK, 0.0000
-0.3010 TO. </s> -0.3010
-0.3010 TODAY AT -0.2041
-0.3010 TOGETHER AS -0.2825
-0.3010 TOO MUCH. 0.0000
-0.3010 TOOK PLACE 0.0000
-0.3010 TOUCH AT -0.2041
-0.3010 TOUGH MEASURES. 0.0000
-0.3010 TRANSMITTED WORLDWIDE. 0.0000
-0.3010 TRIED SEVERAL -0.1761
-0.3010 TRUE FOR -0.2632
-0.3010 TRY THIS -0.2218
-0.3010 TWENTY PEOPLE -0.1761
-0.3010 TWO TO -0.2944
-0.7782 UP BEFOREHAND. 0.0000
-0.7782 UP HER 0.0000
-0.7782 UP TO -0.2944
-0.3010 USED TO -0.2944
-0.3010 VERY AWARE. 0.0000
-0.3010 VOICE. </s> -0.3010
-0.3010 WAIT. </s> -0.3010
-0.3010 WALKED TOGETHER 0.0000
-0.3010 WARMING. </s> -0.3010
-1.4150 WAS A -0.2888
-1.4150 WAS AN 0.0000
-1.4150 WAS BUSY 0.0000
-1.4150 WAS DELICIOUS. 0.0000
-1.4150 WAS GETTING 0.0000
-1.4150 WAS IT -0.2894
-1.4150 WAS NOT -0.2553
-1.4150 WAS SET 0.0000
-1.4150 WAS SOME -0.1761
-1.4150 WAS SURE -0.1761
-1.4150 WAS TIRED 0.0000
-1.4150 WAS TO -0.2877
-1.4150 WAS WELL -0.1761
-0.7782 WE CAN -0.2553
-0.7782 WE HAVE -0.2553
-0.7782 WE SHARED 0.0000
-0.6021 WELL AS -0.2825
-0.6021 WELL LOCATED 0.0000
-0.3010 WELL, YOU -0.2825
-0.3010 WELL. </s> -0.3010
-0.3010 WENT ON -0.2632
-0.3010 WERE RAISED. 0.0000
-1.2041 WHAT DID -0.2553
-1.2041 WHAT DOES 0.0000
-1.2041 WHAT HE -0.2808
-1.2041 WHAT IS -0.2688
-1.2041 WHAT IT -0.2775
-1.2041 WHAT I’M -0.2041
-1.2041 WHAT OF -0.2808
-1.2041 WHAT TO -0.2944
-0.3010 WHEELS ARE -0.2218
-0.3010 WHEREABOUTS. </s> -0.3010
-0.3010 WHILE BEFORE -0.2218
-0.3010 WHO HAD -0.2632
-0.3010 WHOLE THING -0.2218
-0.6021 WHY IT -0.2894
-0.6021 WHY I’M -0.2553
-0.6021 WILL CALL -0.1761
-0.6021 WILL SPEAK 0.0000
-0.6021 WITH AWARENESS-RAISING. 0.0000
-0.6021 WITH IT. 0.0000
-0.3010 WITH. </s> -0.3010
-0.3010 WITHOUT FUNDING. 0.0000
-0.6021 WORK ON -0.2632
-0.6021 WORK OUT -0.2430
-0.3010 WORK, BUT -0.1761
-0.3010 WORLDWIDE. </s> -0.3010
-0.3010 WORRY ABOUT -0.2430
-0.3010 WORTH THE -0.2932
-0.3010 WOULD DEFEND 0.0000
-0.3010 WRONG WITH -0.1761
-1.3802 YOU BACK. 0.0000
-1.0792 YOU CAN’T -0.1761
-1.3802 YOU COULD 0.0000
-1.3802 YOU DID -0.2553
-1.3802 YOU FIND -0.1761
-1.0792 YOU HAVE -0.2041
-1.3802 YOU KNOW 0.0000
-1.3802 YOU MANAGE 0.0000
-1.3802 YOU PAY 0.0000
-1.3802 YOU SEE -0.1761
-0.6021 YOUR LIMIT, 0.0000
-0.6021 YOUR OWN? 0.0000
-0.3010 YOURS, AS -0.2825

\3-grams:
-0.3010 <s> A NUMBER
-0.3010 <s> AFTER A
-0.3010 <s> AND THE
-0.3010 <s> ARE THERE
-0.3010 <s> AS SOON
-0.3010 <s> BARGAINS CAN
-0.3010 <s> BASED ON
-0.3010 <s> BEGINNING. </s>
-0.3010 <s> BUT WE
-0.3010 <s> CHILDREN, RATHER
-0.3010 <s> DID YOU
-0.3010 <s> DO YOU
-0.3010 <s> END. </s>
-0.3010 <s> EVENTUALLY, A
-0.6021 <s> EXCESSIVE CRITICISM
-0.6021 <s> EXCESSIVE SMOKING
-0.3010 <s> FORTUNATELY, IT
-0.3010 <s> HARD TIMES
-1.1461 <s> HE CAN
-1.1461 <s> HE HAD
-1.1461 <s> HE MADE
-1.1461 <s> HE SAID
-1.1461 <s> HE WAS
-1.1461 <s> HE WENT
-1.1461 <s> HE WOULD
-0.3010 <s> HOW DID
-1.3424 <s> I CAN’T
-1.0414 <s> I DON’T
-1.3424 <s> I EXERCISE
-1.3424 <s> I FAIL
-1.3424 <s> I HAD
-1.0414 <s> I LIKE
-1.3424 <s> I TEND
-1.3424 <s> I WAS
-1.3424 <s> I WILL
-0.7782 <s> IT SEEMS
-0.7782 <s> IT USED
-0.7782 <s> IT WAS
-1.0792 <s> IT’S A
-1.0792 <s> IT’S FINE,
-1.0792 <s> IT’S NOT
-1.0792 <s> IT’S SORT
-1.0792 <s> IT’S SUPPOSED
-1.0792 <s> IT’S YOURS,
-0.6021 <s> I’M GOING
-0.6021 <s> I’M THINKING
-0.3010 <s> LIST COMMANDS
-0.3010 <s> MANY PEOPLE
-0.3010 <s> NEXT. </s>
-0.3010 <s> NO ONE
-0.6021 <s> NOT A
-0.6021 <s> NOT ONLY
-0.3010 <s> OBAMA IS
-0.3010 <s> ON THE
-0.3010 <s> PARK IT
-0.3010 <s> PREVIOUS. </s>
-0.9031 <s> SHE DROPPED
-0.9031 <s> SHE HAD
-0.9031 <s> SHE JOGS
-0.9031 <s> SHE POINTED
-0.6021 <s> THAT HOLDS
-0.6021 <s> THAT KID
-1.2041 <s> THE GOOD
-1.2041 <s> THE HOUSE
-1.2041 <s> THE LATTER
-1.2041 <s> THE MESSAGE
-1.2041 <s> THE NEW
-1.2041 <s> THE POLICE
-1.2041 <s> THE RESEARCHERS
-1.2041 <s> THE WHOLE
-0.7782 <s> THERE ARE
-0.4771 <s> THERE WAS
-0.3010 <s> THERE’S NOTHING
-0.9031 <s> THEY CAN’T
-0.9031 <s> THEY GO
-0.9031 <s> THEY NEED
-0.9031 <s> THEY WALKED
-0.3010 <s> TO BE
-0.3010 <s> UP TO
-0.6021 <s> WE HAVE
-0.6021 <s> WE SHARED
-0.3010 <s> WELL, YOU
-0.7782 <s> WHAT DID
-0.7782 <s> WHAT DOES
-0.7782 <s> WHAT IS
-0.6021 <s> YOU CAN’T
-0.9031 <s> YOU DID
-0.9031 <s> YOU HAVE
-0.3010 A BIT OF
-0.3010 A CHALLENGE. </s>
-0.3010 A CONCERN NOW.
-0.3010 A COUPLE OF
-0.3010 A FEW DRINKS,
-0.3010 A FURTHER REASON
-0.3010 A LITTLE BEFORE
-0.3010 A LOT IN
-0.3010 A NUMBER OF
-0.3010 A POLITICAL MATTER.
-0.3010 A PROFIT. </s>
-0.3010 A RANGE OF
-0.3010 A RESULT NOT
-0.3010 A ROOM IN
-0.3010 A SINGLE IDEA
-0.3010 A STRANGE SENSE
-0.3010 A THING OR
-0.3010 A WHILE BEFORE
-0.3010 ABOUT CHANGING CAREERS.
-0.3010 ABOUT IT TOO
-0.3010 ABOUT IT. </s>
-0.3010 ABOUT THIS. </s>
-0.3010 ACTUALLY A POLITICAL
-0.3010 ADDRESS THE MEDIA
-0.3010 ADULTS, TEND TO
-0.3010 AFTER A FEW
-0.3010 ALL THIS. </s>
-0.3010 ALTERNATIVE SOLUTIONS. </s>
-0.3010 AN ACCIDENT. </s>
-0.3010 AND AS A
-0.3010 AND THE PROBLEM
-0.3010 AND WAIT. </s>
-0.3010 ANY KIDS AT
-0.3010 ANY OTHERS, APART
-0.3010 APART FROM HIM?
-0.3010 APPROACHES, IN FACT.
-0.3010 ARE CURBED. </s>
-0.3010 ARE SOME PROBLEMS.
-0.3010 ARE THERE ANY
-0.3010 AS A RESULT
-0.3010 AS EASY TO
-0.3010 AS HE CAN
-0.3010 AS HOW IT
-0.3010 AS IF NO
-0.3010 AS LONG AS
-0.3010 AS SOON AS
-0.3010 AS SWIMS. </s>
-0.3010 AS TO ITS
-0.3010 AS WELL AS
-0.3010 AS WELL. </s>
-0.3010 AS YOU PAY
-0.3010 AT ALL? </s>
-0.3010 AT LEAST. </s>
-0.6021 AT THE OFFICE.
-0.6021 AT THE TIME.
-0.3010 BACK TO THAT
-0.3010 BARGAINS CAN BE
-0.3010 BASED ON THE
-0.3010 BE A CHALLENGE.
-0.3010 BE EXPECTED TO
-0.3010 BE FOUND IF
-0.3010 BE HONEST, I’M
-0.3010 BE INTERVIEWED FOR
-0.3010 BE TRANSMITTED WORLDWIDE.
-0.3010 BECAUSE I HAVE
-0.3010 BEFORE DINNER. </s>
-0.3010 BEFORE I OPENED
-0.3010 BEFORE STOPPING FOR
-0.3010 BELIEVE IT IS
-0.3010 BIT OF DRAMA
-0.3010 BOARD SOUGHT TO
-0.3010 BUSINESS DID MAKE
-0.3010 BUSY AT THE
-0.3010 BUT WE CAN
-0.3010 BUT WHAT OF
-0.3010 BUT, I MEAN,
-0.3010 BY TO PICK
-0.3010 CALL FOR TOUGH
-0.3010 CALL YOU BACK.
-0.3010 CAMPING A LOT
-0.3010 CAN BE FOUND
-0.3010 CAN COME BACK
-0.3010 CAN GO INSTEAD
-0.3010 CAN HE WILL
-0.3010 CAN LEAD TO
-0.3010 CAN’T BE EXPECTED
-0.3010 CAN’T EVEN THOUGH
-0.3010 CAN’T IMAGINE WHAT
-0.3010 CAN’T JUST LET
-0.3010 CARRY OUT WITHOUT
-0.3010 CHANGED THAT. </s>
-0.3010 CHANGING CAREERS. </s>
-0.3010 CHEAP, IT WAS
-0.3010 CHILDREN, RATHER THAN
-0.3010 COME BACK TO
-0.3010 COME OF COURSE.
-0.3010 COME OUT ON
-0.3010 COMMANDS HERE, THREE
-0.3010 CONCERN NOW. </s>
-0.3010 CONCERNS WERE RAISED.
-0.3010 CONFUSION AS TO
-0.3010 CONSIST OF? </s>
-0.3010 COULD EMAIL ME
-0.3010 COUPLE OF MINUTES
-0.3010 CRITICISM RESULTED IN
-0.3010 DEAL WITH. </s>
-0.3010 DEFEND THOSE WHO
-0.3010 DID HE SAY
-0.3010 DID MAKE A
-0.3010 DID THIS ON
-0.6021 DID YOU FIND
-0.6021 DID YOU MANAGE
-0.3010 DO YOU HAVE
-0.3010 DOES IT CONSIST
-0.3010 DON’T KNOW WHAT
-0.3010 DON’T WORRY ABOUT
-0.3010 DRAMA TODAY AT
-0.3010 DRINK, THEN LEFT.
-0.3010 DRINKS, SHE STARTED
-0.3010 DROPPED BY TO
-0.3010 DUE TO GLOBAL
-0.3010 EACH OTHER. </s>
-0.3010 EACH TO RAISE
-0.3010 EASY ENOUGH. </s>
-0.3010 EASY TO CARRY
-0.3010 EMAIL ME AT
-0.3010 EMERGED FROM THE
-0.3010 EVEN THE GOVERNOR
-0.3010 EVEN THOUGH IT
-0.3010 EVENTS CHANGED THAT.
-0.3010 EVENTUALLY, A RANGE
-0.3010 EXACTLY WHY IT
-0.3010 EXCESSIVE CRITICISM RESULTED
-0.3010 EXCESSIVE SMOKING CAN
-0.3010 EXERCISE BECAUSE I
-0.3010 EXPECTED TO JUST
-0.3010 FAIL TO SEE
-0.3010 FEELINGS OF ANIMOSITY.
-0.3010 FEW DRINKS, SHE
-0.3010 FIND ALTERNATIVE SOLUTIONS.
-0.3010 FIND OUT? </s>
-0.3010 FINE, BUT, I
-0.3010 FOLLOWING REMARKS. </s>
-0.3010 FOR A WHILE
-0.3010 FOR EVEN THE
-0.3010 FOR INSTANCE. </s>
-0.3010 FOR LUNCH. </s>
-0.3010 FOR THE JOB.
-0.3010 FOR TOUGH MEASURES.
-0.3010 FORTUNATELY, IT IS
-0.3010 FOUND IF YOU
-0.3010 FROM HIM? </s>
-0.3010 FROM THE MEETING.
-0.3010 FURTHER REASON TO
-0.3010 GET IN TOUCH
-0.3010 GETTING LATE. </s>
-0.3010 GLOBAL WARMING. </s>
-0.3010 GO CAMPING A
-0.3010 GO INSTEAD OF
-0.3010 GOING THROUGH. </s>
-0.3010 GOING TO THINK
-0.3010 GOOD THING IS
-0.3010 GOT PLANNED. </s>
-0.3010 GOT TO TRY
-0.3010 GOVERNOR FOR INSTANCE.
-0.3010 HAD A THING
-0.3010 HAD NO VOICE.
-0.3010 HAD PASSED. </s>
-0.3010 HAD SEVERAL ISSUES
-0.3010 HAD SUCH A
-0.3010 HAD TO MAKE
-0.3010 HAND, THE BUSINESS
-0.3010 HARD TIMES CALL
-0.3010 HAS GOT PLANNED.
-0.3010 HAVE ANY KIDS
-0.3010 HAVE EACH OTHER.
-0.3010 HAVE GOT TO
-0.3010 HAVE QUESTIONS, SUCH
-0.3010 HAVE TO. </s>
-0.6021 HE CAN GO
-0.6021 HE CAN HE
-0.3010 HE HAD A
-0.3010 HE HAS GOT
-0.3010 HE MADE THE
-0.3010 HE SAID HE’D
-0.3010 HE SAY LAST
-0.3010 HE WAS TIRED
-0.3010 HE WENT ON
-0.3010 HE WILL CALL
-0.3010 HE WOULD DEFEND
-0.3010 HEART DISEASE. </s>
-0.3010 HER FRIEND. </s>
-0.3010 HERE, THREE TIMES
-0.3010 HE’D COME OF
-0.3010 HIS ATTITUDE. </s>
-0.3010 HOLDS TRUE FOR
-0.3010 HONEST, I’M LIKELY
-0.3010 HOUSE WAS WELL
-0.3010 HOW DID YOU
-0.3010 HOW IT HAPPENED.
-0.3010 HUMOR IN ALL
-0.3010 I CAN’T EVEN
-0.6021 I DON’T KNOW
-0.6021 I DON’T WORRY
-0.3010 I EXERCISE BECAUSE
-0.3010 I FAIL TO
-0.3010 I HAD TO
-0.3010 I HAVE TO.
-0.6021 I LIKE IT
-0.6021 I LIKE TO
-0.3010 I MEAN, IS
-0.3010 I OPENED THE
-0.3010 I TEND TO
-0.3010 I WAS BUSY
-0.3010 I WILL SPEAK
-0.3010 IDEA EMERGED FROM
-0.3010 IF NO TIME
-0.3010 IF YOU KNOW
-0.3010 IMAGINE WHAT I’M
-0.3010 IN ADDITION. </s>
-0.3010 IN ALL THIS.
-0.3010 IN FACT. </s>
-0.3010 IN FEELINGS OF
-0.3010 IN ORDER TO
-0.3010 IN PARTICULAR WRONG
-0.3010 IN TERMS OF
-0.3010 IN THE SUMMER.
-0.3010 IN TOUCH AT
-0.3010 INSTEAD OF ME.
-0.3010 INTERVIEWED FOR THE
-0.3010 IS DUE TO
-0.3010 IS IT WORTH
-0.3010 IS NO LONGER
-0.3010 IS THAT THEY
-0.3010 IS TO ADDRESS
-0.3010 IS WITH AWARENESS-RAISING.
-0.3010 IS YOUR LIMIT,
-0.3010 ISSUES TO DEAL
-0.3010 IT AS WELL.
-0.3010 IT CHEAP, IT
-0.3010 IT CONSIST OF?
-0.3010 IT HAPPENED. </s>
-0.6021 IT IS DUE
-0.6021 IT IS NO
-0.6021 IT LOOKS EASY
-0.6021 IT LOOKS LIKE.
-0.6021 IT SEEMS IT
-0.6021 IT SEEMS TO
-0.3010 IT SO THAT
-0.3010 IT TOO MUCH.
-0.3010 IT TOOK PLACE
-0.3010 IT USED TO
-0.9031 IT WAS AN
-0.9031 IT WAS DELICIOUS.
-0.9031 IT WAS GETTING
-0.9031 IT WAS NOT
-0.3010 IT WORTH THE
-0.3010 ITS WHEREABOUTS. </s>
-0.3010 IT’S A FURTHER
-0.3010 IT’S ACTUALLY A
-0.3010 IT’S FINE, BUT,
-0.3010 IT’S NOT WHAT
-0.3010 IT’S SORT OF
-0.3010 IT’S SUPPOSED TO
-0.3010 IT’S YOURS, AS
-0.6021 I’M GOING THROUGH.
-0.6021 I’M GOING TO
-0.3010 I’M HERE. </s>
-0.3010 I’M LIKELY TO
-0.3010 I’M THINKING ABOUT
-0.3010 JOGS AS WELL
-0.3010 JUST LET THE
-0.3010 JUST SIT THERE
-0.3010 KID NEEDS TO
-0.3010 KIDS AT ALL?
-0.3010 KIDS TAKE OVER.
-0.6021 KNOW WHAT HE
-0.6021 KNOW WHAT TO
-0.3010 LAST NIGHT? </s>
-0.3010 LATTER MAY STILL
-0.3010 LEAD TO HEART
-0.3010 LEARN QUICKLY. </s>
-0.3010 LET THE KIDS
-0.3010 LIKE IT AS
-0.3010 LIKE TO WORK
-0.3010 LIKELY TO FORGET.
-0.3010 LIMIT, IN TERMS
-0.3010 LIST COMMANDS HERE,
-0.3010 LITTLE BEFORE DINNER.
-0.3010 LOCATED IN ADDITION.
-0.3010 LONG AS YOU
-0.3010 LONG TERM EFFECTS?
-0.3010 LONGER A CONCERN
-0.3010 LOOK FOR. </s>
-0.3010 LOOKS EASY ENOUGH.
-0.3010 LOOKS LIKE. </s>
-0.3010 LOT IN THE
-0.3010 MADE THE FOLLOWING
-0.3010 MAKE A PROFIT.
-0.3010 MAKE SURE BEFORE
-0.3010 MANAGE TO GET
-0.3010 MANY PEOPLE BELIEVE
-0.3010 MAY BE INTERVIEWED
-0.3010 MAY STILL BE
-0.3010 ME AT LEAST.
-0.3010 MEAN, IS IT
-0.3010 MEDIA THIS AFTERNOON.
-0.3010 MESSAGE WAS TO
-0.3010 MINUTES STILL. </s>
-0.3010 MORE OFTEN. </s>
-0.3010 MUCH MORE OFTEN.
-0.3010 NEED A COUPLE
-0.3010 NEEDS TO WORK
-0.3010 NEW BOARD SOUGHT
-0.3010 NO LONGER A
-0.6021 NO ONE ABOUT
-0.6021 NO ONE WAS
-0.3010 NO TIME HAD
-0.3010 NO VOICE. </s>
-0.3010 NOT A SINGLE
-0.3010 NOT AS EASY
-0.3010 NOT ONLY WAS
-0.3010 NOT VERY AWARE.
-0.3010 NOT WHAT IT
-0.3010 NOTHING IN PARTICULAR
-0.3010 NUMBER OF CONCERNS
-0.3010 OBAMA IS TO
-0.3010 OF ANIMOSITY. </s>
-0.3010 OF CONCERNS WERE
-0.3010 OF COURSE. </s>
-0.3010 OF DRAMA TODAY
-0.3010 OF EVENTS CHANGED
-0.3010 OF HUMOR. </s>
-0.3010 OF ME. </s>
-0.3010 OF MINUTES STILL.
-0.3010 OF PRICE? </s>
-0.3010 OF THE LONG
-0.3010 OF WHY I’M
-0.3010 ON FOR A
-0.3010 ON FRIDAY. </s>
-0.3010 ON HIS ATTITUDE.
-0.6021 ON THE OTHER
-0.6021 ON THE REPORTS,
-0.3010 ON YOUR OWN?
-0.3010 ONE ABOUT THIS.
-0.3010 ONE WAS SURE
-0.3010 ONLY WAS IT
-0.3010 OPENED THE DOOR.
-0.3010 OR TWO TO
-0.3010 ORDER TO REDUCE
-0.3010 OTHER HAND, THE
-0.3010 OTHERS, APART FROM
-0.3010 OUT A LITTLE
-0.3010 OUT ON FRIDAY.
-0.3010 OUT THAT IT
-0.3010 OUT WITHOUT FUNDING.
-0.3010 PARK IT SO
-0.3010 PARTICULAR WRONG WITH
-0.3010 PAY THAT IS.
-0.3010 PEOPLE BELIEVE IT
-0.3010 PEOPLE MAY BE
-0.3010 PICK UP HER
-0.3010 PLACE THERE. </s>
-0.3010 POINTED OUT THAT
-0.3010 POLICE HAD SEVERAL
-0.3010 POLITICAL MATTER. </s>
-0.3010 PROBLEM YOU SEE
-0.3010 QUESTIONS, SUCH AS
-0.3010 RAISE THE FREQUENCY.
-0.3010 RANGE OF EVENTS
-0.3010 RATHER THAN ADULTS,
-0.3010 REASON TO RECONSIDER
-0.3010 RECONSIDER THE PROJECT.
-0.3010 REDUCE COSTS </s>
-0.3010 REPORTS, IT SEEMS
-0.3010 RESEARCHERS TRIED SEVERAL
-0.3010 RESULT NOT VERY
-0.3010 RESULTED IN FEELINGS
-0.3010 ROOM IN ORDER
-0.3010 SAID HE’D COME
-0.3010 SAY LAST NIGHT?
-0.3010 SEE IS WITH
-0.3010 SEE THE HUMOR
-0.3010 SEEMS IT WAS
-0.3010 SEEMS TO WORK,
-0.3010 SENSE OF HUMOR.
-0.3010 SET UP BEFOREHAND.
-0.3010 SEVERAL APPROACHES, IN
-0.3010 SEVERAL ISSUES TO
-0.3010 SHARED A ROOM
-0.3010 SHE DROPPED BY
-0.3010 SHE HAD SUCH
-0.3010 SHE JOGS AS
-0.3010 SHE POINTED OUT
-0.3010 SHE STARTED TO
-0.3010 SINGLE IDEA EMERGED
-0.3010 SIT THERE AND
-0.3010 SMOKING CAN LEAD
-0.3010 SNOW MUCH MORE
-0.3010 SO THAT THE
-0.3010 SOME CONFUSION AS
-0.3010 SOME PROBLEMS. </s>
-0.3010 SOON AS HE
-0.3010 SORT OF WHY
-0.3010 SOUGHT TO FIND
-0.3010 SPEAK TO NO
-0.3010 STARTED TO DANCE.
-0.3010 STILL BE A
-0.3010 STILL HAVE EACH
-0.3010 STOPPING FOR LUNCH.
-0.3010 STRANGE SENSE OF
-0.3010 SUCH A STRANGE
-0.3010 SUCH AS HOW
-0.3010 SUPPOSED TO COME
-0.3010 SURE BEFORE I
-0.3010 SURE EXACTLY WHY
-0.3010 TAKE OVER. </s>
-0.6021 TEND TO LEARN
-0.6021 TEND TO THINK
-0.3010 TERM EFFECTS? </s>
-0.3010 TERMS OF PRICE?
-0.3010 THAN ADULTS, TEND
-0.3010 THAT HOLDS TRUE
-0.3010 THAT IS. </s>
-0.3010 THAT IT WAS
-0.3010 THAT KID NEEDS
-0.3010 THAT LATER. </s>
-0.3010 THAT THE WHEELS
-0.3010 THAT THEY STILL
-0.3010 THE BUSINESS DID
-0.3010 THE DOOR. </s>
-0.3010 THE FOLLOWING REMARKS.
-0.3010 THE FREQUENCY. </s>
-0.3010 THE GOOD THING
-0.3010 THE GOVERNOR FOR
-0.3010 THE HOUSE WAS
-0.3010 THE HUMOR IN
-0.3010 THE JOB. </s>
-0.3010 THE KIDS TAKE
-0.3010 THE LATTER MAY
-0.3010 THE LONG TERM
-0.3010 THE MEDIA THIS
-0.3010 THE MEETING. </s>
-0.3010 THE MESSAGE WAS
-0.3010 THE NEW BOARD
-0.3010 THE OFFICE. </s>
-0.3010 THE OTHER HAND,
-0.3010 THE POLICE HAD
-0.3010 THE PRICE? </s>
-0.3010 THE PROBLEM YOU
-0.3010 THE PROJECT. </s>
-0.3010 THE REPORTS, IT
-0.3010 THE RESEARCHERS TRIED
-0.3010 THE SUMMER. </s>
-0.3010 THE TIME. </s>
-0.3010 THE WHEELS ARE
-0.3010 THE WHOLE THING
-0.3010 THEN LEFT. </s>
-0.3010 THERE AND WAIT.
-0.3010 THERE ANY OTHERS,
-0.3010 THERE ARE SOME
-0.6021 THERE WAS A
-0.6021 THERE WAS SOME
-0.3010 THERE’S NOTHING IN
-0.3010 THEY CAN’T BE
-0.3010 THEY GO CAMPING
-0.3010 THEY NEED A
-0.3010 THEY STILL HAVE
-0.3010 THEY WALKED TOGETHER
-0.3010 THING IS THAT
-0.3010 THING OR TWO
-0.3010 THING WAS SET
-0.3010 THINK ABOUT IT.
-0.3010 THINK IT’S ACTUALLY
-0.3010 THINKING ABOUT CHANGING
-0.3010 THIS AFTERNOON. </s>
-0.3010 THIS ON YOUR
-0.3010 THIS SALAD. </s>
-0.3010 THOSE WHO HAD
-0.3010 THOUGH IT LOOKS
-0.3010 THREE TIMES EACH
-0.3010 TIME HAD PASSED.
-0.3010 TIMES CALL FOR
-0.3010 TIMES EACH TO
-0.3010 TIRED AND AS
-0.3010 TO ADDRESS THE
-0.6021 TO BE HONEST,
-0.6021 TO BE TRANSMITTED
-0.3010 TO CARRY OUT
-0.3010 TO COME OUT
-0.3010 TO DANCE. </s>
-0.3010 TO DEAL WITH.
-0.3010 TO DRINK, THEN
-0.3010 TO FIND ALTERNATIVE
-0.3010 TO FORGET. </s>
-0.3010 TO GET IN
-0.3010 TO GLOBAL WARMING.
-0.3010 TO HEART DISEASE.
-0.3010 TO ITS WHEREABOUTS.
-0.3010 TO JUST SIT
-0.3010 TO LEARN QUICKLY.
-0.3010 TO LOOK FOR.
-0.3010 TO MAKE SURE
-0.3010 TO NO ONE
-0.3010 TO PICK UP
-0.3010 TO RAISE THE
-0.3010 TO RECONSIDER THE
-0.3010 TO REDUCE COSTS
-0.3010 TO SEE THE
-0.3010 TO SNOW MUCH
-0.3010 TO THAT LATER.
-0.6021 TO THINK ABOUT
-0.6021 TO THINK IT’S
-0.3010 TO TRY THIS
-0.3010 TO TWENTY PEOPLE
-0.6021 TO WORK ON
-0.6021 TO WORK OUT
-0.3010 TO WORK, BUT
-0.3010 TODAY AT THE
-0.3010 TOGETHER AS IF
-0.3010 TOO MUCH. </s>
-0.3010 TOOK PLACE THERE.
-0.3010 TOUCH AT ALL?
-0.3010 TOUGH MEASURES. </s>
-0.3010 TRANSMITTED WORLDWIDE. </s>
-0.3010 TRIED SEVERAL APPROACHES,
-0.3010 TRUE FOR EVEN
-0.3010 TRY THIS SALAD.
-0.3010 TWENTY PEOPLE MAY
-0.3010 TWO TO DRINK,
-0.3010 UP BEFOREHAND. </s>
-0.3010 UP HER FRIEND.
-0.3010 UP TO TWENTY
-0.3010 USED TO SNOW
-0.3010 VERY AWARE. </s>
-0.3010 WALKED TOGETHER AS
-0.3010 WAS A BIT
-0.3010 WAS AN ACCIDENT.
-0.3010 WAS BUSY AT
-0.3010 WAS DELICIOUS. </s>
-0.3010 WAS GETTING LATE.
-0.3010 WAS IT CHEAP,
-0.3010 WAS NOT AS
-0.3010 WAS SET UP
-0.3010 WAS SOME CONFUSION
-0.3010 WAS SURE EXACTLY
-0.3010 WAS TIRED AND
-0.3010 WAS TO BE
-0.3010 WAS WELL LOCATED
-0.3010 WE CAN COME
-0.3010 WE HAVE QUESTIONS,
-0.3010 WE SHARED A
-0.3010 WELL AS SWIMS.
-0.3010 WELL LOCATED IN
-0.3010 WELL, YOU COULD
-0.3010 WENT ON FOR
-0.3010 WERE RAISED. </s>
-0.3010 WHAT DID HE
-0.3010 WHAT DOES IT
-0.3010 WHAT HE HAS
-0.3010 WHAT IS YOUR
-0.3010 WHAT IT LOOKS
-0.3010 WHAT I’M GOING
-0.3010 WHAT OF THE
-0.3010 WHAT TO LOOK
-0.3010 WHEELS ARE CURBED.
-0.3010 WHILE BEFORE STOPPING
-0.3010 WHO HAD NO
-0.3010 WHOLE THING WAS
-0.3010 WHY IT TOOK
-0.3010 WHY I’M HERE.
-0.3010 WILL CALL YOU
-0.3010 WILL SPEAK TO
-0.3010 WITH AWARENESS-RAISING. </s>
-0.3010 WITH IT. </s>
-0.3010 WITHOUT FUNDING. </s>
-0.3010 WORK ON HIS
-0.3010 WORK OUT A
-0.3010 WORK, BUT WHAT
-0.3010 WORRY ABOUT IT
-0.3010 WORTH THE PRICE?
-0.3010 WOULD DEFEND THOSE
-0.3010 WRONG WITH IT.
-0.3010 YOU BACK. </s>
-0.6021 YOU CAN’T IMAGINE
-0.6021 YOU CAN’T JUST
-0.3010 YOU COULD EMAIL
-0.3010 YOU DID THIS
-0.3010 YOU FIND OUT?
-0.6021 YOU HAVE ANY
-0.6021 YOU HAVE GOT
-0.3010 YOU KNOW WHAT
-0.3010 YOU MANAGE TO
-0.3010 YOU PAY THAT
-0.3010 YOU SEE IS
-0.3010 YOUR LIMIT, IN
-0.3010 YOUR OWN? </s>
-0.3010 YOURS, AS LONG

\end\
